[{"sizes":[169,30,1],"layers":[{"0":{},"1":{},"2":{},"3":{},"4":{},"5":{},"6":{},"7":{},"8":{},"9":{},"10":{},"11":{},"12":{},"13":{},"14":{},"15":{},"16":{},"17":{},"18":{},"19":{},"20":{},"21":{},"22":{},"23":{},"24":{},"25":{},"26":{},"27":{},"28":{},"29":{},"30":{},"31":{},"32":{},"33":{},"34":{},"35":{},"36":{},"37":{},"38":{},"39":{},"40":{},"41":{},"42":{},"43":{},"44":{},"45":{},"46":{},"47":{},"48":{},"49":{},"50":{},"51":{},"52":{},"53":{},"54":{},"55":{},"56":{},"57":{},"58":{},"59":{},"60":{},"61":{},"62":{},"63":{},"64":{},"65":{},"66":{},"67":{},"68":{},"69":{},"70":{},"71":{},"72":{},"73":{},"74":{},"75":{},"76":{},"77":{},"78":{},"79":{},"80":{},"81":{},"82":{},"83":{},"84":{},"85":{},"86":{},"87":{},"88":{},"89":{},"90":{},"91":{},"92":{},"93":{},"94":{},"95":{},"96":{},"97":{},"98":{},"99":{},"100":{},"101":{},"102":{},"103":{},"104":{},"105":{},"106":{},"107":{},"108":{},"109":{},"110":{},"111":{},"112":{},"113":{},"114":{},"115":{},"116":{},"117":{},"118":{},"119":{},"120":{},"121":{},"122":{},"123":{},"124":{},"125":{},"126":{},"127":{},"128":{},"129":{},"130":{},"131":{},"132":{},"133":{},"134":{},"135":{},"136":{},"137":{},"138":{},"139":{},"140":{},"141":{},"142":{},"143":{},"144":{},"145":{},"146":{},"147":{},"148":{},"149":{},"150":{},"151":{},"152":{},"153":{},"154":{},"155":{},"156":{},"157":{},"158":{},"159":{},"160":{},"161":{},"162":{},"163":{},"164":{},"165":{},"166":{},"167":{},"168":{}},{"0":{"bias":0.03167468309402466,"weights":{"0":-0.18136677145957947,"1":0.01510697789490223,"2":0.044276390224695206,"3":-0.1047847643494606,"4":-0.023006528615951538,"5":-0.0624886155128479,"6":-0.2141234129667282,"7":0.03753359615802765,"8":0.0320415236055851,"9":0.1362157166004181,"10":0.042494941502809525,"11":-0.20954355597496033,"12":-0.2111753523349762,"13":-0.027350271120667458,"14":0.026817835867404938,"15":-0.1656709909439087,"16":-0.03177015483379364,"17":0.07405468076467514,"18":0.009270272217690945,"19":-0.10116032510995865,"20":-0.15567797422409058,"21":0.08811961859464645,"22":-0.1060260683298111,"23":-0.14668360352516174,"24":-0.1398313343524933,"25":-0.14416861534118652,"26":-0.03392016142606735,"27":0.035856638103723526,"28":0.14331206679344177,"29":-0.07450877130031586,"30":-0.06538224965333939,"31":0.08384111523628235,"32":0.0226917527616024,"33":0.007927012629806995,"34":0.022604452446103096,"35":-0.19026975333690643,"36":-0.18302422761917114,"37":-0.2521883547306061,"38":-0.04526360332965851,"39":0.0831357091665268,"40":0.018993543460965157,"41":-0.1921478807926178,"42":-0.15089833736419678,"43":0.04059875011444092,"44":0.13006389141082764,"45":0.01697148010134697,"46":-0.14696387946605682,"47":0.07528950273990631,"48":-0.11585737019777298,"49":0.09891956299543381,"50":0.11974778771400452,"51":0.1547282487154007,"52":-0.036954328417778015,"53":0.07695028930902481,"54":-0.22393085062503815,"55":-0.1068536564707756,"56":0.13801006972789764,"57":-0.03404778242111206,"58":0.128693088889122,"59":-0.002950821304693818,"60":0.07900138199329376,"61":-0.058046672493219376,"62":0.055183045566082,"63":0.11421293765306473,"64":-0.14579983055591583,"65":-0.06569980829954147,"66":-0.13094370067119598,"67":0.04969269782304764,"68":-0.1938454955816269,"69":-0.10065098106861115,"70":0.0042794751934707165,"71":-0.0129689397290349,"72":0.11994458734989166,"73":-0.16392314434051514,"74":-0.07037100940942764,"75":-0.13183800876140594,"76":0.0004975806223228574,"77":-0.11036460101604462,"78":-0.12082024663686752,"79":-0.2122061401605606,"80":-0.0033975185360759497,"81":0.039642173796892166,"82":-0.09353355318307877,"83":0.10972046107053757,"84":0.03689739480614662,"85":-0.15952879190444946,"86":0.19374722242355347,"87":-0.007250387687236071,"88":-0.06283329427242279,"89":0.2152010202407837,"90":0.10269398987293243,"91":0.23524683713912964,"92":0.21403414011001587,"93":0.039899908006191254,"94":0.012478434480726719,"95":0.06289791315793991,"96":-0.15260779857635498,"97":-0.041674498468637466,"98":-0.2125515639781952,"99":-0.025514034554362297,"100":0.07014591991901398,"101":0.04923847317695618,"102":0.05468128249049187,"103":-0.09400911629199982,"104":0.11715067923069,"105":0.1629595309495926,"106":0.1416141539812088,"107":-0.08729937672615051,"108":-0.19573837518692017,"109":-0.15128566324710846,"110":0.18657182157039642,"111":0.20158448815345764,"112":-0.07670903205871582,"113":-0.19121195375919342,"114":-0.0018175134900957346,"115":0.03977639600634575,"116":0.2155568152666092,"117":0.04472581297159195,"118":0.22352641820907593,"119":-0.12370876967906952,"120":0.08104096353054047,"121":-0.15750616788864136,"122":0.051858797669410706,"123":0.12404397130012512,"124":0.21412824094295502,"125":0.20083710551261902,"126":0.008923886343836784,"127":0.18271847069263458,"128":0.046363715082407,"129":0.23677261173725128,"130":0.12114905565977097,"131":0.06771867722272873,"132":-0.0088865477591753,"133":-0.0016217941883951426,"134":0.010431612841784954,"135":-0.0964079275727272,"136":-0.06901847571134567,"137":-0.27607858180999756,"138":-0.09991350769996643,"139":-0.04911838099360466,"140":0.07548509538173676,"141":0.03685266897082329,"142":-0.07052851468324661,"143":-0.0027718706987798214,"144":0.11402914673089981,"145":-0.025234300643205643,"146":-0.1827102154493332,"147":-0.05135295167565346,"148":0.06920057535171509,"149":0.06529984623193741,"150":-0.21535158157348633,"151":-0.09631398320198059,"152":0.23122766613960266,"153":-0.1688312143087387,"154":0.21282167732715607,"155":0.18642698228359222,"156":0.1845369189977646,"157":-0.04902546480298042,"158":-0.03090604580938816,"159":-0.1119253858923912,"160":0.008242938667535782,"161":-0.07343815267086029,"162":-0.03798637166619301,"163":-0.09557373821735382,"164":-0.23591408133506775,"165":0.16496288776397705,"166":-0.028605367988348007,"167":0.1939380168914795,"168":-0.1842629313468933}},"1":{"bias":0.008799225091934204,"weights":{"0":-0.5191724300384521,"1":-0.946526288986206,"2":0.5078538656234741,"3":0.3346894383430481,"4":-0.5698845386505127,"5":-0.2956386208534241,"6":-0.7420677542686462,"7":-1.100288987159729,"8":0.1953481137752533,"9":-0.14812980592250824,"10":-0.23626095056533813,"11":0.16150929033756256,"12":0.6184534430503845,"13":-0.3705964684486389,"14":-0.4467152953147888,"15":0.39258861541748047,"16":-0.8639412522315979,"17":-0.9460970759391785,"18":-0.7817797660827637,"19":-0.5666264891624451,"20":-0.19179801642894745,"21":-0.41968169808387756,"22":0.13951334357261658,"23":0.08026979118585587,"24":-0.020096374675631523,"25":0.32681167125701904,"26":0.7200759053230286,"27":0.38712748885154724,"28":0.20949743688106537,"29":-0.8058843612670898,"30":0.20416899025440216,"31":-0.2152620255947113,"32":-0.7691463828086853,"33":0.2955562174320221,"34":0.23242530226707458,"35":-0.22435274720191956,"36":-0.286435604095459,"37":-0.044050849974155426,"38":-0.5097584128379822,"39":-0.4862518608570099,"40":0.4334038197994232,"41":0.7546359896659851,"42":0.6824920773506165,"43":0.17067526280879974,"44":-0.3399012088775635,"45":-0.8674430251121521,"46":-1.1140222549438477,"47":-0.18279670178890228,"48":-0.5376515984535217,"49":-0.8461979031562805,"50":-0.5919661521911621,"51":-0.295960396528244,"52":-0.058108530938625336,"53":0.28551650047302246,"54":0.14328990876674652,"55":-0.14021311700344086,"56":0.22707974910736084,"57":1.38155198097229,"58":-0.6495873332023621,"59":0.3196595311164856,"60":-0.6738767027854919,"61":0.5882282257080078,"62":-0.5598602890968323,"63":0.17834408581256866,"64":0.46017128229141235,"65":-0.6783080697059631,"66":-0.6146619319915771,"67":0.1838534027338028,"68":-0.19227539002895355,"69":0.34585198760032654,"70":-0.7061028480529785,"71":-0.0006979862810112536,"72":-0.6788551807403564,"73":0.1893906593322754,"74":0.4738675355911255,"75":0.16616509854793549,"76":-0.20488719642162323,"77":0.10271719098091125,"78":-0.07248062640428543,"79":0.6135342717170715,"80":0.21586209535598755,"81":-0.05264180898666382,"82":0.0908166915178299,"83":0.46776437759399414,"84":-0.21314731240272522,"85":0.05868071690201759,"86":-0.035351887345314026,"87":-0.49518170952796936,"88":0.006928213872015476,"89":-0.643852710723877,"90":-0.5815744400024414,"91":0.18576571345329285,"92":-0.12662102282047272,"93":-0.035369064658880234,"94":0.1851346343755722,"95":-0.5027217864990234,"96":-0.27882203459739685,"97":-0.029223619028925896,"98":-0.47234079241752625,"99":0.35308781266212463,"100":-0.050051964819431305,"101":1.0712313652038574,"102":-1.2393132448196411,"103":0.43968087434768677,"104":-0.4571768641471863,"105":-0.5341802835464478,"106":-0.37114065885543823,"107":0.2328266203403473,"108":0.6354001760482788,"109":0.45413851737976074,"110":0.49652060866355896,"111":-0.2949630320072174,"112":0.015514081344008446,"113":-0.07311129570007324,"114":-0.5732952356338501,"115":-0.6204947829246521,"116":-1.4523463249206543,"117":-1.0566033124923706,"118":-0.4567789137363434,"119":0.08227598667144775,"120":-0.0018516764976084232,"121":0.6270904541015625,"122":-0.4944402277469635,"123":1.154219627380371,"124":0.4888215661048889,"125":0.1568969190120697,"126":-0.28645744919776917,"127":0.6845561861991882,"128":-0.015416632406413555,"129":-1.2839404344558716,"130":-0.2661769986152649,"131":0.14792747795581818,"132":0.1698332279920578,"133":-0.25544068217277527,"134":0.20287254452705383,"135":0.1638113409280777,"136":0.06112677603960037,"137":0.6741640567779541,"138":-0.4298231899738312,"139":-0.780439555644989,"140":-0.09597091376781464,"141":0.5883082747459412,"142":-0.6028524041175842,"143":-0.016859102994203568,"144":-0.8808401226997375,"145":-0.06851715594530106,"146":0.9261330962181091,"147":-0.7677949070930481,"148":-0.33214348554611206,"149":0.7895606160163879,"150":-0.2757948040962219,"151":0.32870927453041077,"152":0.18803764879703522,"153":-0.0059655169025063515,"154":0.3453924357891083,"155":0.16237182915210724,"156":0.710796058177948,"157":0.2463599592447281,"158":-0.6291216015815735,"159":0.6022530794143677,"160":-0.5002588629722595,"161":0.2749994397163391,"162":-0.15805169939994812,"163":-0.6538697481155396,"164":0.9051553606987,"165":0.6688513159751892,"166":1.007423996925354,"167":0.05963096395134926,"168":0.16612443327903748}},"2":{"bias":-0.4382122755050659,"weights":{"0":0.5356911420822144,"1":0.23296667635440826,"2":-0.561530590057373,"3":-0.5960290431976318,"4":0.5200603604316711,"5":-0.28401756286621094,"6":-0.04950324818491936,"7":0.7477542161941528,"8":-0.324072927236557,"9":-0.28257283568382263,"10":-0.12188863009214401,"11":-0.40720129013061523,"12":-0.18049129843711853,"13":0.3233650028705597,"14":-0.054269108921289444,"15":-0.5412335991859436,"16":0.0986870676279068,"17":0.6192591786384583,"18":0.38947707414627075,"19":0.43557581305503845,"20":0.45236268639564514,"21":0.09413809329271317,"22":-0.321960985660553,"23":0.04251275584101677,"24":0.21192696690559387,"25":-0.08751221001148224,"26":-0.39693450927734375,"27":-0.689083456993103,"28":0.11116120964288712,"29":0.6279722452163696,"30":-0.12986710667610168,"31":0.37808194756507874,"32":0.5023353695869446,"33":-0.1630333513021469,"34":-0.4163183271884918,"35":-0.25486576557159424,"36":-0.06431498378515244,"37":-0.5205822587013245,"38":0.8963525295257568,"39":0.2631540596485138,"40":-0.829318106174469,"41":-0.7878984212875366,"42":-0.7554017901420593,"43":-0.3333713412284851,"44":-0.2213565856218338,"45":0.7933083176612854,"46":0.11758967489004135,"47":0.17889578640460968,"48":0.4822157323360443,"49":0.11854944378137589,"50":0.38673269748687744,"51":0.017792196944355965,"52":-0.1314571052789688,"53":-0.4927781820297241,"54":-0.168264240026474,"55":-0.09457102417945862,"56":-0.5387157201766968,"57":-1.18852961063385,"58":0.7520115375518799,"59":0.5090133547782898,"60":0.4906974136829376,"61":-0.013679735362529755,"62":0.3692333996295929,"63":-0.23939387500286102,"64":-0.650199294090271,"65":0.3653073310852051,"66":0.31500133872032166,"67":-0.2982017695903778,"68":0.019795875996351242,"69":-0.8947368264198303,"70":0.7687906622886658,"71":0.2831522524356842,"72":0.6716210842132568,"73":-0.3907579183578491,"74":-0.2554253339767456,"75":0.18539732694625854,"76":-0.0801662802696228,"77":-0.007581038866192102,"78":0.1748386174440384,"79":-0.3452453911304474,"80":-0.7145012021064758,"81":0.1118423193693161,"82":-0.2238416075706482,"83":-0.6684778928756714,"84":-0.500889003276825,"85":-0.23396159708499908,"86":-0.1637125313282013,"87":0.4941384196281433,"88":0.7617301940917969,"89":0.5007408857345581,"90":0.4035927653312683,"91":-0.5008366107940674,"92":-0.5880712270736694,"93":-0.14147479832172394,"94":-0.37701743841171265,"95":0.4689555764198303,"96":0.06737020611763,"97":-0.4124310612678528,"98":-0.05909692123532295,"99":-0.887704610824585,"100":-0.07857223600149155,"101":-0.7293828725814819,"102":0.8675519227981567,"103":-0.7628819346427917,"104":-0.06767041236162186,"105":-0.2043815404176712,"106":0.47865521907806396,"107":-0.09656459838151932,"108":-0.4190211296081543,"109":-0.5615948438644409,"110":-0.5785877704620361,"111":0.16482993960380554,"112":-0.530662477016449,"113":0.12582838535308838,"114":0.6334157586097717,"115":0.5100120902061462,"116":0.9730647206306458,"117":0.25135180354118347,"118":-0.01834147237241268,"119":0.2123679220676422,"120":-0.46158885955810547,"121":-0.6012043356895447,"122":0.05507221817970276,"123":-1.0602024793624878,"124":-0.7325019240379333,"125":-0.01406949758529663,"126":0.05237637087702751,"127":-0.4178815186023712,"128":0.11036305129528046,"129":1.144681692123413,"130":0.7191505432128906,"131":-0.3721720278263092,"132":-0.5348129868507385,"133":-0.20193685591220856,"134":0.00016887043602764606,"135":-0.4843672811985016,"136":0.6514893770217896,"137":-0.41512107849121094,"138":-0.17171400785446167,"139":0.48762524127960205,"140":-0.032978639006614685,"141":-0.38822948932647705,"142":0.43895289301872253,"143":-0.318185955286026,"144":0.24749009311199188,"145":-0.15488427877426147,"146":-0.9505715370178223,"147":0.43050023913383484,"148":-0.1501026302576065,"149":-0.993950366973877,"150":-0.12207648903131485,"151":-0.054836153984069824,"152":0.0825880914926529,"153":-0.31719091534614563,"154":-0.5029448866844177,"155":-0.49455517530441284,"156":-0.6537334322929382,"157":-0.9285130500793457,"158":0.2992967665195465,"159":-0.8488694429397583,"160":0.6666298508644104,"161":-0.36033737659454346,"162":0.014133657328784466,"163":0.12711209058761597,"164":-0.8885636925697327,"165":-0.3892838656902313,"166":-0.7745037078857422,"167":-0.021101174876093864,"168":0.028634125366806984}},"3":{"bias":0.3671922981739044,"weights":{"0":-0.1433142125606537,"1":-0.4030451476573944,"2":-0.13856716454029083,"3":0.32066869735717773,"4":-0.23790879547595978,"5":0.10487176477909088,"6":0.2068873792886734,"7":-0.38034024834632874,"8":0.4437316060066223,"9":0.556039571762085,"10":0.17407028377056122,"11":-0.19930218160152435,"12":0.03414132446050644,"13":0.5647980570793152,"14":0.31718796491622925,"15":0.15118134021759033,"16":-0.9072389006614685,"17":-0.8060593605041504,"18":-0.7875815033912659,"19":-0.5805538296699524,"20":0.20854678750038147,"21":0.09562867134809494,"22":0.7425501942634583,"23":0.6734250783920288,"24":-0.4765203893184662,"25":0.32203906774520874,"26":0.7492796182632446,"27":0.6490373611450195,"28":0.21462005376815796,"29":-0.09223177284002304,"30":0.21271243691444397,"31":-0.46238696575164795,"32":-0.31752249598503113,"33":0.18705342710018158,"34":0.2842346727848053,"35":0.16383612155914307,"36":0.011828511953353882,"37":-0.0723826214671135,"38":-0.18212655186653137,"39":0.2247871309518814,"40":0.2736033797264099,"41":0.8903294205665588,"42":-0.031451236456632614,"43":0.2049434632062912,"44":0.2710299491882324,"45":-0.43524184823036194,"46":-1.1233481168746948,"47":0.3072596490383148,"48":0.002898682374507189,"49":-0.3837123513221741,"50":0.15706095099449158,"51":0.35768264532089233,"52":0.027065368369221687,"53":0.25448882579803467,"54":-0.027696290984749794,"55":-0.2974439561367035,"56":0.02381822094321251,"57":0.601957380771637,"58":-0.7140783071517944,"59":0.011003538966178894,"60":0.08225168287754059,"61":-0.1790499985218048,"62":0.021795805543661118,"63":0.33199480175971985,"64":0.7721830010414124,"65":0.27624019980430603,"66":-0.21897666156291962,"67":0.5463523268699646,"68":0.2793038785457611,"69":0.5193070769309998,"70":-0.047887399792671204,"71":0.3694061040878296,"72":-0.43417543172836304,"73":0.5786148905754089,"74":0.23653782904148102,"75":0.3604985177516937,"76":0.2542201280593872,"77":-0.08765105903148651,"78":-0.3043639361858368,"79":0.16972042620182037,"80":0.37817779183387756,"81":0.3373784124851227,"82":0.462340772151947,"83":0.4538203477859497,"84":0.2516252100467682,"85":0.22639144957065582,"86":0.1922418773174286,"87":-0.07432912290096283,"88":-0.22763220965862274,"89":0.03542298451066017,"90":-0.29347890615463257,"91":0.2463102638721466,"92":0.20721779763698578,"93":0.42062386870384216,"94":0.23927760124206543,"95":-0.4861313998699188,"96":-0.36868011951446533,"97":0.23895348608493805,"98":0.3176020383834839,"99":0.44013017416000366,"100":0.06745471805334091,"101":1.0637807846069336,"102":-0.5941048860549927,"103":0.3451889157295227,"104":0.2793930172920227,"105":0.18548476696014404,"106":0.23995809257030487,"107":-0.1541709452867508,"108":0.30162736773490906,"109":0.023698316887021065,"110":-0.149790957570076,"111":-0.1406150907278061,"112":0.28441932797431946,"113":-0.14460055530071259,"114":-0.31103992462158203,"115":0.08839385956525803,"116":-0.5780447721481323,"117":-0.10421112924814224,"118":0.08465580642223358,"119":-0.2665821313858032,"120":0.28106334805488586,"121":0.4495762586593628,"122":-0.03521323204040527,"123":0.7067062854766846,"124":-0.22414126992225647,"125":0.105464406311512,"126":-0.06714258342981339,"127":0.3568597733974457,"128":-0.08020095527172089,"129":-0.35334786772727966,"130":-0.175493523478508,"131":0.4934021234512329,"132":0.1222681924700737,"133":-0.34707024693489075,"134":0.3783389627933502,"135":0.17381484806537628,"136":-0.35991257429122925,"137":0.19467264413833618,"138":-0.4817441701889038,"139":-0.63453209400177,"140":-0.5044403672218323,"141":0.2879774570465088,"142":0.018515296280384064,"143":-0.19941435754299164,"144":-1.142193078994751,"145":-0.14124795794487,"146":0.39458540081977844,"147":0.04689188301563263,"148":-0.37864428758621216,"149":0.8678066730499268,"150":-0.11366159468889236,"151":0.38579484820365906,"152":0.14496676623821259,"153":-0.3273237645626068,"154":-0.542772650718689,"155":0.1982129067182541,"156":0.33758649230003357,"157":-0.26172950863838196,"158":-0.7911888957023621,"159":0.4326411187648773,"160":-0.2877878248691559,"161":0.6131625771522522,"162":0.11998286843299866,"163":-0.30324506759643555,"164":1.1476415395736694,"165":0.5558005571365356,"166":0.7471237778663635,"167":-0.1505424976348877,"168":0.006814848631620407}},"4":{"bias":0.0030062177684158087,"weights":{"0":-0.10310167074203491,"1":0.8399662375450134,"2":-0.15043656527996063,"3":-0.48753541707992554,"4":0.13095323741436005,"5":-0.45516929030418396,"6":-0.11301679164171219,"7":0.7259510159492493,"8":-0.9306704998016357,"9":-0.37769827246665955,"10":0.45717480778694153,"11":0.41819313168525696,"12":-0.22063639760017395,"13":0.028118064627051353,"14":0.11450681835412979,"15":-0.45480430126190186,"16":1.2224522829055786,"17":1.0635757446289062,"18":1.185739278793335,"19":0.7816606163978577,"20":-0.19965948164463043,"21":0.18912017345428467,"22":-0.9866396188735962,"23":-0.5603510737419128,"24":0.8696572184562683,"25":-0.22332225739955902,"26":-0.37002819776535034,"27":-0.506110429763794,"28":-0.240305095911026,"29":0.5676440000534058,"30":-0.16935695707798004,"31":0.7771188020706177,"32":0.6038514971733093,"33":0.347648561000824,"34":0.21643050014972687,"35":-0.3351096510887146,"36":-0.018478458747267723,"37":-0.5584802627563477,"38":0.5138312578201294,"39":-0.08485415577888489,"40":-0.4050208330154419,"41":-0.9667884707450867,"42":-0.42654284834861755,"43":0.015342630445957184,"44":-0.06509499251842499,"45":0.14296410977840424,"46":1.5391935110092163,"47":-0.23872646689414978,"48":0.4859928488731384,"49":0.34016117453575134,"50":0.6248646974563599,"51":-0.3000849187374115,"52":-0.26091015338897705,"53":-0.4447871446609497,"54":-0.1798858940601349,"55":0.8048444986343384,"56":0.11922051757574081,"57":-0.5137985944747925,"58":0.751560628414154,"59":0.41661199927330017,"60":0.512418806552887,"61":0.3143049478530884,"62":0.6598239541053772,"63":-0.42408356070518494,"64":-0.5758944153785706,"65":0.05097731202840805,"66":0.006226211786270142,"67":0.004577632527798414,"68":-0.1140412911772728,"69":-0.7471177577972412,"70":0.42287757992744446,"71":-0.01782798208296299,"72":0.23343469202518463,"73":-0.5602690577507019,"74":0.04050968214869499,"75":0.14748184382915497,"76":-0.09958720207214355,"77":0.3379921317100525,"78":0.3295312523841858,"79":-0.4622109830379486,"80":-0.6795925498008728,"81":-0.08286065608263016,"82":-0.7789274454116821,"83":-0.41260629892349243,"84":-0.37839436531066895,"85":-0.048436135053634644,"86":-0.6607599854469299,"87":0.4729469120502472,"88":0.9648198485374451,"89":0.5085555911064148,"90":0.3428075909614563,"91":-0.6538827419281006,"92":0.057186514139175415,"93":-0.37160131335258484,"94":-0.06110424920916557,"95":0.5016857385635376,"96":0.3124789297580719,"97":-0.061814434826374054,"98":-0.14944370090961456,"99":-0.7530208826065063,"100":-0.31001925468444824,"101":-1.1328662633895874,"102":0.9397114515304565,"103":-0.17437969148159027,"104":0.1309516578912735,"105":0.0028820044826716185,"106":0.07835236191749573,"107":-0.24549740552902222,"108":0.2357432097196579,"109":-0.11723695695400238,"110":0.052951641380786896,"111":0.9533547759056091,"112":-0.47170308232307434,"113":0.32992130517959595,"114":0.455194354057312,"115":-0.0144241563975811,"116":0.8468148708343506,"117":0.36504465341567993,"118":0.10538426041603088,"119":0.4554904103279114,"120":-0.0878073200583458,"121":-0.5134688019752502,"122":0.6421988606452942,"123":-1.2796249389648438,"124":0.5496193170547485,"125":0.5603101849555969,"126":0.6757969260215759,"127":-0.36338338255882263,"128":-0.22441545128822327,"129":0.7391083240509033,"130":0.21808281540870667,"131":-0.3844676613807678,"132":-0.4703159034252167,"133":0.3030935227870941,"134":-0.26670753955841064,"135":-0.3286820948123932,"136":0.7361330389976501,"137":-0.7196484804153442,"138":0.8515955805778503,"139":1.0407824516296387,"140":0.6222544312477112,"141":-0.12240700423717499,"142":-0.24541939795017242,"143":0.33778735995292664,"144":1.2886031866073608,"145":0.28027454018592834,"146":-1.1073027849197388,"147":0.36180299520492554,"148":1.0208399295806885,"149":-1.1560982465744019,"150":0.05819297954440117,"151":-0.42694714665412903,"152":0.6326224207878113,"153":0.7484148144721985,"154":0.4239135980606079,"155":-0.05722327530384064,"156":-0.33659422397613525,"157":0.26266148686408997,"158":1.1256790161132812,"159":-0.8043981790542603,"160":0.12188328802585602,"161":-0.9252043962478638,"162":0.40971025824546814,"163":0.530487060546875,"164":-1.543647289276123,"165":-0.2808016538619995,"166":-0.6903996467590332,"167":0.4736664593219757,"168":0.10518670082092285}},"5":{"bias":-0.17933236062526703,"weights":{"0":1.3044325113296509,"1":0.6649448871612549,"2":-0.5758731365203857,"3":0.39046627283096313,"4":1.462936520576477,"5":-0.33546513319015503,"6":-0.3006163537502289,"7":1.9153327941894531,"8":-1.3956798315048218,"9":-0.1459767371416092,"10":-0.26981112360954285,"11":0.4040353000164032,"12":0.20015455782413483,"13":-0.3616045117378235,"14":-0.28405407071113586,"15":-0.6115021109580994,"16":1.3826106786727905,"17":1.4272063970565796,"18":0.6117715239524841,"19":1.388370394706726,"20":0.6895436644554138,"21":0.7769275903701782,"22":-0.5931037068367004,"23":0.4412136673927307,"24":-0.1798200160264969,"25":-0.37033316493034363,"26":-1.0340046882629395,"27":-1.2458590269088745,"28":-1.1086983680725098,"29":0.6174781918525696,"30":-0.8776499032974243,"31":1.2181495428085327,"32":1.9381502866744995,"33":0.156839519739151,"34":0.18182069063186646,"35":0.585180401802063,"36":1.0547964572906494,"37":-0.5576101541519165,"38":0.7694794535636902,"39":-0.1897631287574768,"40":-1.2835673093795776,"41":-1.1424942016601562,"42":-1.1515475511550903,"43":-0.6116018295288086,"44":0.2339457869529724,"45":0.9569570422172546,"46":2.7041966915130615,"47":0.4797879755496979,"48":1.9614511728286743,"49":-0.27134522795677185,"50":0.3601457476615906,"51":-0.4586838483810425,"52":-0.48592111468315125,"53":-1.031559705734253,"54":-0.8585439920425415,"55":0.24252916872501373,"56":-0.14216718077659607,"57":-0.9263209104537964,"58":0.4937328100204468,"59":0.21352042257785797,"60":0.9100500345230103,"61":0.22895954549312592,"62":1.54994797706604,"63":-1.1059001684188843,"64":-0.33962303400039673,"65":-0.006606571841984987,"66":-0.5973601341247559,"67":-0.2441401332616806,"68":-0.9758015275001526,"69":-1.3941240310668945,"70":0.709631085395813,"71":-0.2772378623485565,"72":-0.015342218801379204,"73":-0.054137323051691055,"74":0.36965885758399963,"75":0.2205546796321869,"76":-0.08551330119371414,"77":0.5090367794036865,"78":0.5619321465492249,"79":-1.8349885940551758,"80":-1.89945387840271,"81":0.1834433674812317,"82":-1.0754369497299194,"83":-1.1682474613189697,"84":-0.410783588886261,"85":-0.09887418150901794,"86":-1.2781051397323608,"87":0.5156236886978149,"88":0.5302103161811829,"89":1.1040263175964355,"90":-0.10261455178260803,"91":-0.8159095048904419,"92":-0.13820388913154602,"93":-1.0804996490478516,"94":-0.7155183553695679,"95":0.5436996817588806,"96":0.5919471383094788,"97":-0.5591752529144287,"98":-0.09896653890609741,"99":-1.1832383871078491,"100":0.04384827986359596,"101":-0.8038425445556641,"102":1.2657766342163086,"103":-0.19345562160015106,"104":0.7518796324729919,"105":0.4985206425189972,"106":0.2403212934732437,"107":-0.8890832662582397,"108":0.37709182500839233,"109":-0.5694670677185059,"110":0.6866315007209778,"111":0.8673610687255859,"112":-0.02343600243330002,"113":0.5047367811203003,"114":0.46604886651039124,"115":0.17511607706546783,"116":2.0040769577026367,"117":0.8136789202690125,"118":0.9939754009246826,"119":0.7303486466407776,"120":-0.13275347650051117,"121":-0.7637373805046082,"122":0.021702701225876808,"123":-1.1556702852249146,"124":-0.1508786529302597,"125":-0.10918548703193665,"126":0.3583500385284424,"127":-0.6135517954826355,"128":-0.7322877049446106,"129":1.0508085489273071,"130":0.014017020352184772,"131":-0.2560676336288452,"132":-0.28940239548683167,"133":0.361616849899292,"134":-1.4125131368637085,"135":-0.19210951030254364,"136":0.027514634653925896,"137":0.09690146893262863,"138":0.353564590215683,"139":0.8218203783035278,"140":0.008475344628095627,"141":-0.4145638942718506,"142":0.6226344108581543,"143":0.26075679063796997,"144":1.2541801929473877,"145":0.03594227507710457,"146":-1.3591512441635132,"147":1.6632856130599976,"148":1.284969687461853,"149":-1.4210090637207031,"150":0.004150885622948408,"151":0.28471970558166504,"152":0.187484472990036,"153":-0.2803213596343994,"154":0.18387258052825928,"155":-0.4037165939807892,"156":-1.3586238622665405,"157":-0.5342125296592712,"158":0.1255035102367401,"159":-1.0783771276474,"160":1.0496169328689575,"161":-1.181409478187561,"162":0.8328068852424622,"163":0.5685681104660034,"164":-1.342408299446106,"165":-0.4553866982460022,"166":-1.016190767288208,"167":-0.49666327238082886,"168":-0.11253445595502853}},"6":{"bias":0.6701770424842834,"weights":{"0":-0.1572248786687851,"1":-0.5569150447845459,"2":0.6253418922424316,"3":0.5698599219322205,"4":0.3870580792427063,"5":1.4260791540145874,"6":0.3748539686203003,"7":-0.2649673521518707,"8":0.13375362753868103,"9":0.38973861932754517,"10":0.48587003350257874,"11":0.5611567497253418,"12":0.4010683596134186,"13":-0.3317950963973999,"14":-0.5165203213691711,"15":1.130801796913147,"16":0.6721020936965942,"17":0.45020967721939087,"18":-0.300935834646225,"19":-0.814657986164093,"20":-1.6099647283554077,"21":-0.8804571032524109,"22":-0.116789311170578,"23":-0.7672168016433716,"24":-0.2455173283815384,"25":-0.017632411792874336,"26":0.29938963055610657,"27":0.9454889893531799,"28":0.5555090308189392,"29":-0.6816168427467346,"30":-0.21472136676311493,"31":0.9870206117630005,"32":-1.6591737270355225,"33":0.341113418340683,"34":1.0328799486160278,"35":0.2649644911289215,"36":-0.22416150569915771,"37":0.6263760924339294,"38":-1.1294610500335693,"39":-0.8236668705940247,"40":1.541348934173584,"41":0.7432653307914734,"42":1.6366227865219116,"43":0.23442189395427704,"44":0.13157258927822113,"45":0.16471585631370544,"46":-0.08945883810520172,"47":-1.0361835956573486,"48":-0.7073599100112915,"49":0.24105514585971832,"50":-0.827473521232605,"51":-0.372864693403244,"52":-0.35797950625419617,"53":0.8756603002548218,"54":0.7867590188980103,"55":0.6832360029220581,"56":1.2614657878875732,"57":1.3770893812179565,"58":-1.1538199186325073,"59":-0.8935546278953552,"60":-1.2122098207473755,"61":0.33075830340385437,"62":-0.6119557023048401,"63":-0.09208808094263077,"64":0.15736046433448792,"65":-0.30558741092681885,"66":0.5676613450050354,"67":0.29625850915908813,"68":0.19279636442661285,"69":1.1996287107467651,"70":-0.1619361788034439,"71":-0.27054309844970703,"72":-0.2503527104854584,"73":0.41853517293930054,"74":-0.3458510637283325,"75":-0.5059022307395935,"76":0.5957797765731812,"77":-0.5326104164123535,"78":-0.40304896235466003,"79":1.0444693565368652,"80":0.5075576901435852,"81":0.2811555564403534,"82":0.5430198907852173,"83":0.5487293004989624,"84":0.1358908712863922,"85":-0.42959359288215637,"86":0.08046538382768631,"87":-1.099915623664856,"88":-1.4940065145492554,"89":-0.20687030255794525,"90":-0.6325828433036804,"91":0.5405488610267639,"92":0.4934163987636566,"93":1.0043226480484009,"94":-0.6828070878982544,"95":-0.6701818108558655,"96":-0.12360797077417374,"97":-0.17607496678829193,"98":-0.3492489755153656,"99":0.6196160912513733,"100":0.537789523601532,"101":0.8479198813438416,"102":-1.1470118761062622,"103":0.9475967288017273,"104":-0.3383038341999054,"105":0.35914143919944763,"106":-1.0858516693115234,"107":0.017247328534722328,"108":0.6758825778961182,"109":-0.2603675127029419,"110":0.6451959013938904,"111":-0.4951034188270569,"112":0.40966442227363586,"113":0.7837128043174744,"114":0.1979396790266037,"115":-0.3983103036880493,"116":-0.9236147999763489,"117":-1.4932221174240112,"118":-0.06926502287387848,"119":0.49814802408218384,"120":0.7477113008499146,"121":0.6786120533943176,"122":-0.11723235249519348,"123":1.1489615440368652,"124":0.4655520021915436,"125":-0.17127235233783722,"126":0.957190752029419,"127":0.6000568270683289,"128":0.6952304244041443,"129":-0.9052636027336121,"130":-1.0936088562011719,"131":-0.7218433022499084,"132":0.6453964114189148,"133":1.4506607055664062,"134":0.28396785259246826,"135":0.46584662795066833,"136":-0.2908583879470825,"137":0.9070602059364319,"138":-0.3252396881580353,"139":0.282657265663147,"140":1.0163493156433105,"141":-0.06504108756780624,"142":-0.28572386503219604,"143":-0.035272520035505295,"144":0.1666206419467926,"145":0.5421261191368103,"146":0.6733128428459167,"147":0.15406624972820282,"148":-0.06789769977331161,"149":0.8686997294425964,"150":0.06826586276292801,"151":-0.22410982847213745,"152":-0.7026692032814026,"153":0.5623866319656372,"154":0.8359072804450989,"155":0.5205912590026855,"156":-0.40736353397369385,"157":0.6992470026016235,"158":-0.7163459658622742,"159":0.7000514268875122,"160":0.6590591669082642,"161":0.4509766399860382,"162":-0.03221127763390541,"163":0.2678605616092682,"164":0.8032158017158508,"165":-0.02240734174847603,"166":0.6545922160148621,"167":0.3404470384120941,"168":0.12574508786201477}},"7":{"bias":-0.15035785734653473,"weights":{"0":0.24068480730056763,"1":0.26871457695961,"2":-0.0485617034137249,"3":-0.10557880252599716,"4":-0.09969770163297653,"5":0.14531241357326508,"6":0.07414431124925613,"7":0.052638668566942215,"8":-0.01271012518554926,"9":0.24444884061813354,"10":0.16872872412204742,"11":-0.17576907575130463,"12":-0.03605996444821358,"13":0.26118090748786926,"14":0.03142828121781349,"15":0.1361844539642334,"16":0.07353118062019348,"17":-0.08145715296268463,"18":0.19465522468090057,"19":-0.12722249329090118,"20":0.1880490779876709,"21":-0.006356725934892893,"22":-0.12152483314275742,"23":0.16858260333538055,"24":-0.18564198911190033,"25":0.13854002952575684,"26":0.05262584611773491,"27":-0.14260917901992798,"28":-0.25726696848869324,"29":-0.0031118786428123713,"30":-0.05184517428278923,"31":-0.09099138528108597,"32":-0.0392661988735199,"33":-0.03243986517190933,"34":0.2698758542537689,"35":0.2563823163509369,"36":-0.11143811792135239,"37":-0.06699962913990021,"38":0.2741245925426483,"39":0.2017318606376648,"40":0.1305406540632248,"41":0.08884229511022568,"42":0.027955058962106705,"43":0.09289764612913132,"44":-0.054416097700595856,"45":0.004940157290548086,"46":0.02567426674067974,"47":0.16437625885009766,"48":0.07609397172927856,"49":0.25750139355659485,"50":0.08354512602090836,"51":-0.14931491017341614,"52":0.20407059788703918,"53":0.12832340598106384,"54":-0.19990350306034088,"55":-0.12044335901737213,"56":-0.02095954678952694,"57":-0.014674343168735504,"58":0.011561309918761253,"59":0.006659789942204952,"60":0.04724021255970001,"61":-0.22160229086875916,"62":0.0660223439335823,"63":0.08509427309036255,"64":0.2747710943222046,"65":-0.007957338355481625,"66":-0.09821896255016327,"67":-0.2104671746492386,"68":-0.126897394657135,"69":-0.0859902948141098,"70":-0.032779183238744736,"71":0.056876812130212784,"72":0.02456223964691162,"73":-0.143853560090065,"74":-0.1928391009569168,"75":0.13381411135196686,"76":0.2635073661804199,"77":-0.06845761835575104,"78":0.2121858298778534,"79":-0.17951829731464386,"80":-0.11428750306367874,"81":0.17772486805915833,"82":-0.0037979278713464737,"83":0.07468049228191376,"84":-0.07307445257902145,"85":0.1625785380601883,"86":-0.005021358374506235,"87":0.29441067576408386,"88":0.1440434455871582,"89":0.28836506605148315,"90":-0.14653225243091583,"91":-0.05536653473973274,"92":0.13396096229553223,"93":0.18233047425746918,"94":0.140212282538414,"95":-0.028734348714351654,"96":0.19724033772945404,"97":-0.16213148832321167,"98":0.2421310991048813,"99":0.03939254209399223,"100":0.1917169988155365,"101":0.091900534927845,"102":0.3164977729320526,"103":0.012522268109023571,"104":0.05456700548529625,"105":-0.1577778309583664,"106":0.13519525527954102,"107":-0.030201852321624756,"108":0.1865365207195282,"109":0.11870799213647842,"110":-0.10018717497587204,"111":0.042056627571582794,"112":0.293489545583725,"113":-0.1434365212917328,"114":-0.09538844227790833,"115":0.2296660840511322,"116":0.30245843529701233,"117":0.11217093467712402,"118":0.15768274664878845,"119":0.13617803156375885,"120":-0.02383822202682495,"121":-0.02049771323800087,"122":0.13525113463401794,"123":-0.03725951164960861,"124":-0.005891246721148491,"125":-0.15861564874649048,"126":0.26831677556037903,"127":-0.18099059164524078,"128":0.0042839800007641315,"129":0.042139869183301926,"130":0.1226762980222702,"131":-0.05626790225505829,"132":0.03968433663249016,"133":0.08589986711740494,"134":-0.0023923516273498535,"135":-0.021442560479044914,"136":-0.007687651086598635,"137":0.12978887557983398,"138":0.14349399507045746,"139":0.03286544606089592,"140":-0.11596997082233429,"141":0.21133998036384583,"142":-0.08789011090993881,"143":0.1711599975824356,"144":0.11373411118984222,"145":-0.1410965770483017,"146":-0.17232415080070496,"147":-0.06551358103752136,"148":0.2293979674577713,"149":-0.02535315789282322,"150":0.18897120654582977,"151":-0.23073835670948029,"152":0.03419436886906624,"153":-0.11324708163738251,"154":0.15838173031806946,"155":0.14184927940368652,"156":-0.08571235835552216,"157":0.12436264008283615,"158":0.12360206246376038,"159":-0.22068960964679718,"160":-0.16131214797496796,"161":-0.15735889971256256,"162":0.27684351801872253,"163":0.22904719412326813,"164":-0.17543825507164001,"165":-0.13593269884586334,"166":-0.14482688903808594,"167":0.13644525408744812,"168":-0.12876616418361664}},"8":{"bias":0.14468073844909668,"weights":{"0":-0.16330868005752563,"1":-0.6959725022315979,"2":-0.09197265654802322,"3":0.036763496696949005,"4":0.09498058259487152,"5":0.3559386134147644,"6":0.8399915099143982,"7":-0.2997772693634033,"8":0.0256655253469944,"9":0.26772668957710266,"10":-0.18938814103603363,"11":-0.07418122887611389,"12":-0.5285607576370239,"13":0.1932515799999237,"14":-0.49555346369743347,"15":-0.11097528785467148,"16":0.32781970500946045,"17":0.31876957416534424,"18":-0.5908859968185425,"19":-0.09643395245075226,"20":-0.35897040367126465,"21":-0.2276882529258728,"22":0.13196894526481628,"23":-0.1171119436621666,"24":0.22640110552310944,"25":0.6093688607215881,"26":0.2437097430229187,"27":0.47821179032325745,"28":0.15601058304309845,"29":-0.8522072434425354,"30":-0.4677898585796356,"31":0.2748076021671295,"32":-0.7904152870178223,"33":-0.08648339658975601,"34":0.05835797265172005,"35":0.05697412043809891,"36":-0.47944286465644836,"37":0.4605066776275635,"38":-0.2869459092617035,"39":-0.6255838871002197,"40":0.5052528381347656,"41":0.3422378599643707,"42":0.39456552267074585,"43":-0.15390101075172424,"44":-0.3631725311279297,"45":0.06326662749052048,"46":-0.5125226974487305,"47":0.1094805896282196,"48":-0.24900031089782715,"49":-0.1303400844335556,"50":-0.3103553354740143,"51":-0.4074613153934479,"52":-0.03949793800711632,"53":0.000022439726308220997,"54":0.1865994930267334,"55":-0.01700057089328766,"56":0.03420624881982803,"57":0.1335826814174652,"58":-1.1464606523513794,"59":-0.6640700101852417,"60":-0.14731468260288239,"61":-0.6073125004768372,"62":-0.0029756445437669754,"63":0.037431731820106506,"64":0.7864304780960083,"65":-0.2803003489971161,"66":-0.19320842623710632,"67":0.08127953857183456,"68":-0.27793753147125244,"69":0.4754883944988251,"70":-0.4361960291862488,"71":0.01593858189880848,"72":-0.9983012080192566,"73":-0.06638699024915695,"74":-0.10528753697872162,"75":-0.18176086246967316,"76":0.15626952052116394,"77":-0.3403278887271881,"78":-0.785439133644104,"79":0.0037639818619936705,"80":0.1763218641281128,"81":-0.32350069284439087,"82":-0.0711802989244461,"83":0.12405797839164734,"84":-0.19993343949317932,"85":-0.03008229471743107,"86":0.07206249237060547,"87":-0.4615857005119324,"88":-0.2895371913909912,"89":-0.09542088955640793,"90":0.07038706541061401,"91":0.10327635705471039,"92":-0.3969043791294098,"93":-0.11998048424720764,"94":-0.3238089382648468,"95":-0.7128192186355591,"96":-0.6221537590026855,"97":-0.023939387872815132,"98":-0.20351538062095642,"99":-0.008461527526378632,"100":0.3622353672981262,"101":0.3730832040309906,"102":-0.572357177734375,"103":0.8172001838684082,"104":-0.23497281968593597,"105":-0.2708726227283478,"106":-0.3600282371044159,"107":-0.16323529183864594,"108":-0.30357858538627625,"109":-0.26932594180107117,"110":-0.5900206565856934,"111":-0.8348788022994995,"112":0.015940271317958832,"113":0.41345810890197754,"114":0.06134404242038727,"115":0.32446032762527466,"116":-0.18946965038776398,"117":-0.5228840708732605,"118":-0.19795233011245728,"119":-0.5085017681121826,"120":0.6398590803146362,"121":0.09836599975824356,"122":-0.20569244027137756,"123":0.8130180239677429,"124":0.24563120305538177,"125":-0.3811483383178711,"126":0.5200802683830261,"127":-0.2877892851829529,"128":0.2358013391494751,"129":-0.2852388024330139,"130":-0.06038251891732216,"131":-0.20342770218849182,"132":-0.19686086475849152,"133":0.5715831518173218,"134":0.1711854189634323,"135":0.07885058969259262,"136":-0.24077293276786804,"137":-0.10562232881784439,"138":0.3026823103427887,"139":0.12374623864889145,"140":0.5428094863891602,"141":-0.4539635479450226,"142":-0.10296641290187836,"143":0.6086313724517822,"144":0.20506569743156433,"145":0.3167639970779419,"146":0.026712588965892792,"147":0.42841774225234985,"148":0.09128283709287643,"149":0.1702067255973816,"150":-0.11942341923713684,"151":0.0005594854010269046,"152":-0.125238835811615,"153":0.1443062275648117,"154":-0.18833565711975098,"155":-0.14562678337097168,"156":-0.2522740662097931,"157":-0.05179428681731224,"158":-0.4898253381252289,"159":-0.18233540654182434,"160":0.04266989231109619,"161":0.5317442417144775,"162":-0.15826933085918427,"163":-0.10454273223876953,"164":0.22468727827072144,"165":0.29151609539985657,"166":0.4129933714866638,"167":0.8096107244491577,"168":0.04183204472064972}},"9":{"bias":0.23110555112361908,"weights":{"0":0.2356937825679779,"1":0.6741030216217041,"2":0.16080771386623383,"3":-0.23499301075935364,"4":0.3352462649345398,"5":-0.41649582982063293,"6":0.2662762403488159,"7":1.0174849033355713,"8":-0.47210222482681274,"9":-0.2905510663986206,"10":0.40842029452323914,"11":0.4811435043811798,"12":-0.16819049417972565,"13":-0.13237489759922028,"14":-0.1963096708059311,"15":-0.23017118871212006,"16":1.3702785968780518,"17":1.333061933517456,"18":1.4486221075057983,"19":0.822068452835083,"20":-0.06558454036712646,"21":0.3450952470302582,"22":-0.8207902312278748,"23":-0.5042653679847717,"24":0.925865650177002,"25":-0.24564054608345032,"26":-0.47850456833839417,"27":-0.32747167348861694,"28":-0.3665919303894043,"29":1.173022747039795,"30":0.3688060939311981,"31":0.6528400778770447,"32":0.37029963731765747,"33":0.04260358214378357,"34":0.2748697102069855,"35":-0.3435528576374054,"36":-0.0012749220477417111,"37":-0.394963800907135,"38":0.44962015748023987,"39":0.030666938051581383,"40":-0.23456360399723053,"41":-0.6519880890846252,"42":-0.45107904076576233,"43":0.34076452255249023,"44":-0.22347953915596008,"45":0.49376168847084045,"46":1.1245050430297852,"47":-0.0044195088557899,"48":0.35604289174079895,"49":0.5142877697944641,"50":0.5235669016838074,"51":-0.19689251482486725,"52":0.19163931906223297,"53":-0.25471699237823486,"54":-0.09928259253501892,"55":1.0901256799697876,"56":0.14884522557258606,"57":-0.45358121395111084,"58":0.5090770721435547,"59":-0.007442886475473642,"60":-0.02915758267045021,"61":-0.22577787935733795,"62":0.21540901064872742,"63":-0.6057213544845581,"64":-0.6177927851676941,"65":0.08470147848129272,"66":0.5070440173149109,"67":0.027239466086030006,"68":-0.24987170100212097,"69":-0.6480950117111206,"70":0.727224588394165,"71":-0.022672433406114578,"72":-0.05187784880399704,"73":-0.15198007225990295,"74":-0.10481546074151993,"75":-0.08498448133468628,"76":-0.014134937897324562,"77":0.15543219447135925,"78":0.33169451355934143,"79":-0.4214537441730499,"80":-0.34024685621261597,"81":0.2134302258491516,"82":-0.4049408435821533,"83":-0.20244884490966797,"84":0.08269412070512772,"85":0.06465187668800354,"86":-0.6769127249717712,"87":0.44181162118911743,"88":0.6068496108055115,"89":0.5203680992126465,"90":-0.034332968294620514,"91":-0.29404300451278687,"92":-0.14032471179962158,"93":-0.25652241706848145,"94":-0.2030167281627655,"95":0.22683075070381165,"96":0.32057008147239685,"97":0.24105601012706757,"98":-0.16775336861610413,"99":-0.6733493208885193,"100":-0.117234006524086,"101":-1.0187618732452393,"102":0.823074221611023,"103":-0.4900813102722168,"104":0.24231122434139252,"105":-0.18726207315921783,"106":0.10015125572681427,"107":-0.17799615859985352,"108":-0.3852832317352295,"109":-0.5564384460449219,"110":-0.5244815349578857,"111":0.6172953844070435,"112":-0.32915112376213074,"113":0.25647762417793274,"114":0.6856523156166077,"115":0.21964900195598602,"116":1.118102788925171,"117":0.4598826467990875,"118":0.12553833425045013,"119":0.3225661516189575,"120":-0.29296875,"121":-0.41585031151771545,"122":0.4313049614429474,"123":-1.168859839439392,"124":0.1722426861524582,"125":0.3265770673751831,"126":0.5609592795372009,"127":-0.4949653744697571,"128":-0.3352949917316437,"129":0.8885761499404907,"130":-0.006867213640362024,"131":-0.42955055832862854,"132":-0.35002392530441284,"133":0.311369389295578,"134":-0.6219660639762878,"135":-0.38777613639831543,"136":0.2916749119758606,"137":-0.737246036529541,"138":0.5385861396789551,"139":1.0902607440948486,"140":0.6844266057014465,"141":-0.21627432107925415,"142":0.3102123737335205,"143":0.6237944960594177,"144":1.5444207191467285,"145":0.31086209416389465,"146":-1.0366445779800415,"147":0.452054500579834,"148":1.0091842412948608,"149":-1.0778743028640747,"150":0.11636192351579666,"151":-0.6581926345825195,"152":0.3630484640598297,"153":0.9334481954574585,"154":0.36114391684532166,"155":-0.09648124128580093,"156":-0.2614169716835022,"157":0.19759853184223175,"158":1.2668311595916748,"159":-0.49370288848876953,"160":0.3216994106769562,"161":-0.5830415487289429,"162":0.4218217432498932,"163":0.4389672577381134,"164":-1.4807487726211548,"165":-0.5428050756454468,"166":-0.8389535546302795,"167":0.41677847504615784,"168":-0.011251053772866726}},"10":{"bias":-0.06836851686239243,"weights":{"0":0.23968814313411713,"1":0.9302987456321716,"2":-0.10465721786022186,"3":-0.28977468609809875,"4":0.5714765191078186,"5":-0.2923003137111664,"6":0.41751039028167725,"7":0.9057661294937134,"8":-0.6785491704940796,"9":-0.344705730676651,"10":0.5360032916069031,"11":0.6490370631217957,"12":-0.32192155718803406,"13":-0.07024959474802017,"14":0.28097808361053467,"15":-0.18150678277015686,"16":1.3868414163589478,"17":1.6927248239517212,"18":1.881030559539795,"19":0.8411812782287598,"20":-0.08431080728769302,"21":0.20733602344989777,"22":-0.9800335764884949,"23":-0.6818276047706604,"24":0.925664484500885,"25":-0.40296581387519836,"26":-0.3172551393508911,"27":-0.4541783332824707,"28":-0.7795624136924744,"29":1.049808382987976,"30":-0.13528166711330414,"31":0.8857721090316772,"32":0.8529684543609619,"33":0.2946889400482178,"34":0.3218573331832886,"35":-0.13847388327121735,"36":-0.21794216334819794,"37":-0.46895742416381836,"38":0.7263811826705933,"39":-0.14977048337459564,"40":-0.6670736074447632,"41":-0.9588542580604553,"42":-0.49354371428489685,"43":0.33867591619491577,"44":-0.4430272579193115,"45":0.7322893738746643,"46":1.9622774124145508,"47":0.040791578590869904,"48":0.8541655540466309,"49":0.28268492221832275,"50":0.743269681930542,"51":-0.46622422337532043,"52":0.23407776653766632,"53":-0.32135409116744995,"54":0.004939910490065813,"55":0.93954998254776,"56":0.09413953870534897,"57":-0.5086727738380432,"58":0.7470070123672485,"59":0.36556732654571533,"60":0.5468969941139221,"61":-0.016798341646790504,"62":0.6775349378585815,"63":-0.703957200050354,"64":-0.7825955748558044,"65":0.04720035567879677,"66":-0.03935898840427399,"67":-0.25476163625717163,"68":-0.5796623826026917,"69":-0.7833445072174072,"70":0.7898045778274536,"71":-0.0768965408205986,"72":0.4421129524707794,"73":-0.4146796464920044,"74":-0.17950065433979034,"75":0.13670456409454346,"76":0.10191110521554947,"77":0.12399540096521378,"78":0.5018573999404907,"79":-0.5205665230751038,"80":-0.6201174259185791,"81":-0.08824457228183746,"82":-1.0458849668502808,"83":-0.46920642256736755,"84":-0.30339914560317993,"85":-0.31509310007095337,"86":-0.49813583493232727,"87":0.6348828077316284,"88":1.3722120523452759,"89":0.7501552700996399,"90":0.1952579915523529,"91":-0.516093909740448,"92":0.343902051448822,"93":-0.041563041508197784,"94":-0.07777224481105804,"95":0.539043128490448,"96":0.3450206220149994,"97":-0.11515870690345764,"98":-0.21961566805839539,"99":-1.0896910429000854,"100":-0.11924956738948822,"101":-1.0863882303237915,"102":1.4027150869369507,"103":-0.05935133621096611,"104":0.2629750072956085,"105":-0.10415786504745483,"106":0.2293703407049179,"107":-0.3903498649597168,"108":0.07220952957868576,"109":-0.13854987919330597,"110":-0.08507902175188065,"111":0.7444660663604736,"112":-0.2136537879705429,"113":0.5115567445755005,"114":0.7400922775268555,"115":0.4186815619468689,"116":1.4582862854003906,"117":0.7248267531394958,"118":0.3235188126564026,"119":0.5615236759185791,"120":-0.1616753339767456,"121":-0.6588611006736755,"122":0.7593222260475159,"123":-1.5391405820846558,"124":0.5118336081504822,"125":0.44179901480674744,"126":0.5741874575614929,"127":-0.6486667990684509,"128":-0.10374177992343903,"129":0.9514625668525696,"130":-0.24213343858718872,"131":-0.6592155694961548,"132":-0.20546706020832062,"133":0.5996313691139221,"134":-0.36668068170547485,"135":-0.5438365936279297,"136":0.5827376842498779,"137":-0.3703899681568146,"138":1.0289946794509888,"139":1.3921698331832886,"140":0.9267151951789856,"141":-0.2753121554851532,"142":-0.031898133456707,"143":0.5935726165771484,"144":1.662132978439331,"145":0.1085745170712471,"146":-1.2500369548797607,"147":0.5704967379570007,"148":1.3428112268447876,"149":-1.0748125314712524,"150":0.25552064180374146,"151":-0.3395708501338959,"152":0.2071242779493332,"153":0.7648983597755432,"154":0.5282021760940552,"155":0.13526535034179688,"156":-0.4677325487136841,"157":0.2249951958656311,"158":1.0188095569610596,"159":-0.8954874873161316,"160":0.4056585133075714,"161":-1.4255058765411377,"162":0.47266578674316406,"163":0.5658334493637085,"164":-1.8685498237609863,"165":-0.3048001527786255,"166":-0.95405113697052,"167":0.36574822664260864,"168":0.11271462589502335}},"11":{"bias":0.31718993186950684,"weights":{"0":0.045739442110061646,"1":-0.06637158244848251,"2":0.1790565699338913,"3":0.14374981820583344,"4":0.019637132063508034,"5":0.33934468030929565,"6":0.12256328016519547,"7":-0.017297837883234024,"8":-0.11163261532783508,"9":0.0057158987037837505,"10":-0.21991972625255585,"11":0.2267552763223648,"12":-0.031184080988168716,"13":-0.050761543214321136,"14":-0.46667012572288513,"15":0.24132750928401947,"16":0.3135446608066559,"17":0.10118133574724197,"18":0.16739553213119507,"19":0.13992246985435486,"20":-0.012204195372760296,"21":-0.18436048924922943,"22":0.06839386373758316,"23":0.05581076070666313,"24":0.19372917711734772,"25":0.0340861938893795,"26":0.27700215578079224,"27":0.2721796929836273,"28":0.08484849333763123,"29":-0.1968860775232315,"30":-0.1813194900751114,"31":0.4164890944957733,"32":-0.3794926404953003,"33":-0.22790208458900452,"34":-0.04817406088113785,"35":-0.30043095350265503,"36":-0.12087947875261307,"37":0.09772037714719772,"38":-0.0707331970334053,"39":-0.09734077751636505,"40":0.20866502821445465,"41":0.2849721610546112,"42":0.3708626925945282,"43":0.16471335291862488,"44":0.061880700290203094,"45":0.10817088931798935,"46":-0.045861467719078064,"47":0.012102405540645123,"48":-0.31499576568603516,"49":-0.0859873816370964,"50":-0.25593075156211853,"51":-0.2305331826210022,"52":0.10877581685781479,"53":-0.0601796954870224,"54":0.33556240797042847,"55":-0.000049528702220413834,"56":0.16082222759723663,"57":0.4380034804344177,"58":-0.23072397708892822,"59":0.10902801156044006,"60":-0.16735665500164032,"61":-0.0261992234736681,"62":-0.24856999516487122,"63":-0.14316394925117493,"64":-0.05365079268813133,"65":-0.0044081262312829494,"66":-0.013034137897193432,"67":-0.11000121384859085,"68":-0.019362008199095726,"69":0.10081524401903152,"70":-0.13574638962745667,"71":-0.03188568353652954,"72":-0.31360113620758057,"73":0.020239802077412605,"74":0.14855502545833588,"75":0.2216624617576599,"76":-0.19811424612998962,"77":-0.12180743366479874,"78":0.0436314158141613,"79":0.3411427140235901,"80":0.07260160893201828,"81":-0.28139185905456543,"82":-0.1980789303779602,"83":0.12684060633182526,"84":-0.13441601395606995,"85":-0.14493714272975922,"86":-0.16281355917453766,"87":-0.32277968525886536,"88":0.050031423568725586,"89":-0.24578699469566345,"90":-0.0076593742705881596,"91":0.2982734739780426,"92":0.07601846009492874,"93":0.0577104315161705,"94":-0.19989950954914093,"95":-0.2441074401140213,"96":-0.006480340845882893,"97":0.2246912121772766,"98":-0.30078139901161194,"99":0.0949096754193306,"100":0.1411551684141159,"101":-0.20943956077098846,"102":-0.08719689399003983,"103":0.3280826807022095,"104":-0.14845329523086548,"105":-0.26206645369529724,"106":0.07009053230285645,"107":0.1071125790476799,"108":0.15504126250743866,"109":0.20901064574718475,"110":0.2754058241844177,"111":-0.2526615858078003,"112":0.00017590408970136195,"113":0.27243199944496155,"114":0.24887335300445557,"115":-0.03855108469724655,"116":-0.16105803847312927,"117":-0.3175060451030731,"118":0.17084753513336182,"119":0.27733004093170166,"120":0.0656215250492096,"121":-0.02166428230702877,"122":-0.1049559935927391,"123":0.31879812479019165,"124":0.402427077293396,"125":0.26496535539627075,"126":0.13296228647232056,"127":-0.10564553737640381,"128":0.06035331264138222,"129":-0.10994835197925568,"130":-0.15101751685142517,"131":-0.1528574675321579,"132":0.1534087359905243,"133":0.04125482961535454,"134":0.05788994953036308,"135":0.026867380365729332,"136":0.1233077272772789,"137":0.1827668398618698,"138":-0.04931511729955673,"139":-0.012661175802350044,"140":0.24609877169132233,"141":-0.10460150241851807,"142":0.2370876669883728,"143":0.17339582741260529,"144":-0.009871505200862885,"145":0.20168164372444153,"146":0.0835418775677681,"147":0.2786034345626831,"148":-0.1643449366092682,"149":0.22840891778469086,"150":-0.015467643737792969,"151":0.26605942845344543,"152":0.028456848114728928,"153":0.23407979309558868,"154":0.27405986189842224,"155":-0.040181055665016174,"156":0.12368011474609375,"157":0.11546254903078079,"158":-0.04253693297505379,"159":0.2677784264087677,"160":0.26695793867111206,"161":0.21228855848312378,"162":-0.09265073388814926,"163":-0.14445173740386963,"164":0.2025105357170105,"165":0.015682637691497803,"166":0.06680683046579361,"167":0.1721765697002411,"168":-0.057177361100912094}},"12":{"bias":0.2630707323551178,"weights":{"0":-0.02670213393867016,"1":0.09421264380216599,"2":-0.10931476950645447,"3":-0.26875633001327515,"4":-0.18432827293872833,"5":-0.25219354033470154,"6":-0.17741341888904572,"7":0.2976928651332855,"8":-0.2561553716659546,"9":0.209303081035614,"10":-0.0562015138566494,"11":0.1700476109981537,"12":-0.0056491149589419365,"13":-0.0029264469631016254,"14":0.19934870302677155,"15":-0.11858339607715607,"16":-0.30367356538772583,"17":0.1940203309059143,"18":-0.04305579513311386,"19":0.2747844159603119,"20":0.2008858174085617,"21":0.37211546301841736,"22":0.0380808562040329,"23":0.10447060316801071,"24":-0.17483404278755188,"25":-0.1173902079463005,"26":-0.16776493191719055,"27":-0.2252858728170395,"28":-0.13738927245140076,"29":0.172713503241539,"30":-0.029806647449731827,"31":-0.1403292566537857,"32":0.11434335261583328,"33":-0.35308030247688293,"34":0.10180751234292984,"35":0.26433274149894714,"36":0.10109550505876541,"37":0.02748737297952175,"38":0.2742553949356079,"39":0.07517735660076141,"40":0.012853892520070076,"41":-0.3091781735420227,"42":-0.5543042421340942,"43":0.10431515425443649,"44":-0.5107555389404297,"45":0.04692953824996948,"46":0.011795378290116787,"47":-0.40342023968696594,"48":-0.17539769411087036,"49":-0.09334836900234222,"50":0.14191974699497223,"51":-0.14061133563518524,"52":0.07748991996049881,"53":-0.20903578400611877,"54":-0.10527383536100388,"55":0.1974431872367859,"56":-0.14579777419567108,"57":-0.5735971331596375,"58":-0.3926433026790619,"59":-0.2568782567977905,"60":0.08265586942434311,"61":-0.4692555367946625,"62":-0.15096254646778107,"63":-0.25050175189971924,"64":-0.28565266728401184,"65":0.1797950714826584,"66":0.4399592876434326,"67":-0.011708615347743034,"68":0.04640236869454384,"69":-0.10069960355758667,"70":0.28487879037857056,"71":0.009588973596692085,"72":0.18019895255565643,"73":-0.2692343294620514,"74":-0.03075980581343174,"75":-0.02756851352751255,"76":-0.09975109994411469,"77":-0.18336524069309235,"78":-0.2674347460269928,"79":-0.04715714603662491,"80":-0.13842281699180603,"81":0.23094378411769867,"82":0.27329692244529724,"83":0.13034681975841522,"84":0.09163681417703629,"85":-0.18783952295780182,"86":-0.298546701669693,"87":0.09284944087266922,"88":0.09915900975465775,"89":-0.13966681063175201,"90":-0.08863375335931778,"91":-0.1584780067205429,"92":0.19240109622478485,"93":0.07301108539104462,"94":0.14439798891544342,"95":0.16301587224006653,"96":-0.03090338036417961,"97":0.30267783999443054,"98":-0.06866922229528427,"99":-0.15720628201961517,"100":-0.39674726128578186,"101":-0.1785752922296524,"102":0.07207638770341873,"103":-0.3515225052833557,"104":-0.10038260370492935,"105":-0.14933878183364868,"106":-0.02127743698656559,"107":-0.4606879651546478,"108":-0.01842326484620571,"109":0.33329737186431885,"110":0.2791021168231964,"111":0.11744774132966995,"112":-0.22812630236148834,"113":-0.29594242572784424,"114":-0.3636408746242523,"115":-0.16204211115837097,"116":0.17802844941616058,"117":0.21186691522598267,"118":0.23154470324516296,"119":-0.3563030958175659,"120":-0.21031902730464935,"121":-0.2061670571565628,"122":-0.12855254113674164,"123":-0.043475326150655746,"124":0.312560498714447,"125":0.30415698885917664,"126":0.00881936214864254,"127":-0.12979450821876526,"128":-0.3547556698322296,"129":0.15585780143737793,"130":0.008797278627753258,"131":0.09361563622951508,"132":-0.23967856168746948,"133":0.06770655512809753,"134":-0.059229955077171326,"135":0.008573086000978947,"136":0.0586162768304348,"137":-0.31597262620925903,"138":0.11808934807777405,"139":0.06877971440553665,"140":-0.10642997175455093,"141":-0.01425391249358654,"142":-0.1852365881204605,"143":0.050791554152965546,"144":0.1817101538181305,"145":-0.010100282728672028,"146":-0.12918642163276672,"147":0.33192920684814453,"148":0.46372729539871216,"149":0.15040914714336395,"150":0.23944666981697083,"151":0.1829526573419571,"152":0.09472626447677612,"153":0.30376604199409485,"154":-0.129074826836586,"155":-0.1131223663687706,"156":-0.21303504705429077,"157":-0.3280247747898102,"158":0.17248301208019257,"159":0.1113194152712822,"160":0.25634631514549255,"161":0.09829019010066986,"162":0.08371421694755554,"163":0.5095325112342834,"164":-0.11843908578157425,"165":0.05181192234158516,"166":-0.028181053698062897,"167":-0.09867237508296967,"168":0.15151502192020416}},"13":{"bias":-0.002524215029552579,"weights":{"0":0.10687542706727982,"1":-1.1079684495925903,"2":-0.11326237767934799,"3":-0.04452703148126602,"4":-0.2636830806732178,"5":0.571215808391571,"6":0.09505902230739594,"7":-0.6768121719360352,"8":0.9920504689216614,"9":0.4909307360649109,"10":-0.5567430257797241,"11":-0.8165841102600098,"12":0.19368773698806763,"13":-0.33976754546165466,"14":-0.31977635622024536,"15":0.5032230019569397,"16":-1.2035232782363892,"17":-1.6260390281677246,"18":-1.9309799671173096,"19":-0.35658106207847595,"20":-0.07863470166921616,"21":-0.33601126074790955,"22":0.8695124387741089,"23":0.48882344365119934,"24":-0.8389517068862915,"25":0.28391748666763306,"26":0.4000047743320465,"27":0.6500737071037292,"28":0.743953287601471,"29":-0.9439241290092468,"30":-0.0729818195104599,"31":-0.6695607304573059,"32":-1.3227931261062622,"33":-0.13108256459236145,"34":-0.04999615252017975,"35":-0.05074760690331459,"36":-0.03210030496120453,"37":0.7572128176689148,"38":-0.5881803631782532,"39":0.08519052714109421,"40":0.6531698107719421,"41":1.00680410861969,"42":0.4975314438343048,"43":-0.24081376194953918,"44":-0.3385370969772339,"45":-0.4784289598464966,"46":-1.9818339347839355,"47":0.18085069954395294,"48":-0.8001339435577393,"49":0.044811420142650604,"50":-0.6212494373321533,"51":0.08139465749263763,"52":-0.010360821150243282,"53":0.570565938949585,"54":0.1292172521352768,"55":-0.9102328419685364,"56":-0.015204986557364464,"57":0.5984365940093994,"58":-0.9427884221076965,"59":-0.5020952820777893,"60":-1.018567681312561,"61":-0.293956458568573,"62":-0.8401397466659546,"63":0.6721454858779907,"64":0.7412535548210144,"65":0.022717125713825226,"66":0.05687927454710007,"67":0.06661981344223022,"68":0.062001828104257584,"69":0.5961794257164001,"70":-0.9325237274169922,"71":0.1818932145833969,"72":-0.28938743472099304,"73":0.5483301877975464,"74":0.073507159948349,"75":-0.10122627764940262,"76":0.12842079997062683,"77":-0.5308290123939514,"78":-0.6154388189315796,"79":0.8727606534957886,"80":0.7897927165031433,"81":-0.0857696458697319,"82":0.46520936489105225,"83":0.6019092798233032,"84":0.31036627292633057,"85":0.24084830284118652,"86":0.6187121868133545,"87":-0.7228724956512451,"88":-1.2337843179702759,"89":-0.6319058537483215,"90":-0.43345075845718384,"91":0.44177359342575073,"92":0.2253407984972,"93":0.45407286286354065,"94":0.18315887451171875,"95":-0.7000419497489929,"96":-0.5393844842910767,"97":-0.05630302429199219,"98":0.4320135712623596,"99":1.0857045650482178,"100":0.9231476187705994,"101":1.1768224239349365,"102":-1.6644314527511597,"103":0.08289935439825058,"104":-0.25797444581985474,"105":-0.0009532039985060692,"106":-0.40537381172180176,"107":0.597993791103363,"108":-0.04993508756160736,"109":0.0792410671710968,"110":-0.012222717516124249,"111":-1.2492456436157227,"112":0.4166024327278137,"113":0.054843004792928696,"114":-0.30395588278770447,"115":-0.031138289719820023,"116":-1.1787372827529907,"117":-1.0612661838531494,"118":-0.1717136949300766,"119":-0.4540404975414276,"120":0.09405524283647537,"121":0.36463722586631775,"122":-0.5510500073432922,"123":1.3528512716293335,"124":-0.2837250232696533,"125":-0.5318304300308228,"126":-0.42873409390449524,"127":0.2043878436088562,"128":0.7778661847114563,"129":-0.9433578252792358,"130":0.2677723169326782,"131":0.19427265226840973,"132":0.21642154455184937,"133":0.24286599457263947,"134":0.3044034540653229,"135":0.29507625102996826,"136":-0.6137428879737854,"137":0.39633917808532715,"138":-0.9665462970733643,"139":-0.8137055039405823,"140":-0.3095058798789978,"141":0.18074503540992737,"142":0.26861733198165894,"143":-0.41075390577316284,"144":-1.1712435483932495,"145":-0.03150763735175133,"146":1.1201071739196777,"147":-0.3114125430583954,"148":-1.2975457906723022,"149":1.392289400100708,"150":-0.06471853703260422,"151":0.4681159257888794,"152":-0.5319193005561829,"153":-0.6372388005256653,"154":-0.6902192234992981,"155":0.15092189610004425,"156":0.07579197734594345,"157":-0.014221231453120708,"158":-1.1426994800567627,"159":0.651613712310791,"160":-0.11458011716604233,"161":1.3574223518371582,"162":-0.7140676975250244,"163":-0.6113467812538147,"164":1.5485200881958008,"165":0.4967330992221832,"166":0.7495852708816528,"167":0.27230218052864075,"168":0.16359016299247742}},"14":{"bias":-0.006306667812168598,"weights":{"0":0.46145308017730713,"1":-0.19952057301998138,"2":-0.18121404945850372,"3":0.5874873995780945,"4":0.00268761208280921,"5":0.7710109949111938,"6":0.25113099813461304,"7":-0.372636616230011,"8":0.8126474022865295,"9":0.38942649960517883,"10":-0.09432289749383926,"11":-0.34755152463912964,"12":0.43885231018066406,"13":0.0505656972527504,"14":0.06009773164987564,"15":0.4448610246181488,"16":-0.5545075535774231,"17":-0.3564704358577728,"18":-0.7317225337028503,"19":-0.30778688192367554,"20":0.209374338388443,"21":-0.039608508348464966,"22":1.1229172945022583,"23":0.40658649802207947,"24":-0.4758540391921997,"25":0.01571035198867321,"26":0.339857816696167,"27":0.550369143486023,"28":0.392228364944458,"29":-0.6783871650695801,"30":0.5230775475502014,"31":-0.7864258289337158,"32":-0.7530996203422546,"33":-0.3632144033908844,"34":-0.34121769666671753,"35":0.3887712061405182,"36":0.09056822210550308,"37":0.35993650555610657,"38":0.022441938519477844,"39":0.3854126036167145,"40":0.4751181900501251,"41":0.9661478996276855,"42":0.041290756314992905,"43":-0.10189923644065857,"44":0.34421032667160034,"45":-0.08551369607448578,"46":-1.4733686447143555,"47":0.34497275948524475,"48":-0.6600885391235352,"49":0.22528406977653503,"50":-0.07911930233240128,"51":0.4712325930595398,"52":0.28283414244651794,"53":0.7358754277229309,"54":0.41794079542160034,"55":-0.6567774415016174,"56":0.1404035985469818,"57":0.3201448321342468,"58":-0.10425101965665817,"59":-0.5495441555976868,"60":-0.3609083294868469,"61":-0.30742964148521423,"62":-0.5487362742424011,"63":0.5892673134803772,"64":0.5041183233261108,"65":0.1487475484609604,"66":0.5691596865653992,"67":0.2331974059343338,"68":0.37535107135772705,"69":0.42512649297714233,"70":-0.07441341131925583,"71":-0.015711432322859764,"72":-0.017898505553603172,"73":0.17341169714927673,"74":-0.07556894421577454,"75":-0.09346066415309906,"76":0.06309432536363602,"77":-0.3411106467247009,"78":-0.4408390522003174,"79":0.4177371859550476,"80":1.1910533905029297,"81":-0.03238533437252045,"82":0.34346115589141846,"83":0.3804081380367279,"84":0.4867667257785797,"85":0.271415650844574,"86":0.6127477288246155,"87":-0.33434557914733887,"88":-0.9391965270042419,"89":-0.508813738822937,"90":-0.34124255180358887,"91":0.6703490018844604,"92":0.17598088085651398,"93":0.40775853395462036,"94":0.2246588170528412,"95":-0.29386642575263977,"96":0.1994563341140747,"97":0.16804268956184387,"98":0.3870026171207428,"99":0.8585876822471619,"100":0.3960484266281128,"101":0.700428307056427,"102":-0.6942009329795837,"103":0.09864208847284317,"104":-0.17581838369369507,"105":0.06848767399787903,"106":0.322830468416214,"107":0.1117621660232544,"108":0.008328532800078392,"109":0.3760628402233124,"110":0.018113229423761368,"111":-0.864987850189209,"112":0.421901673078537,"113":-0.06577134132385254,"114":0.13822583854198456,"115":0.5173143744468689,"116":-0.6579375267028809,"117":0.26230695843696594,"118":0.23544706404209137,"119":-0.8737204670906067,"120":0.08473096042871475,"121":0.26018255949020386,"122":-0.3769369423389435,"123":0.6521037817001343,"124":-0.4588570296764374,"125":-0.3976373076438904,"126":-0.2554851770401001,"127":0.44784510135650635,"128":0.6748167276382446,"129":0.03099355474114418,"130":0.4872327148914337,"131":0.4017200469970703,"132":0.5103439092636108,"133":-0.1563359797000885,"134":0.3409842550754547,"135":0.5195997357368469,"136":-0.561795175075531,"137":0.20993807911872864,"138":-0.7360221147537231,"139":-0.4569542109966278,"140":-0.34038278460502625,"141":-0.17886513471603394,"142":0.7433162331581116,"143":-0.3185942471027374,"144":-0.5958842039108276,"145":0.019258718937635422,"146":0.6567637324333191,"147":0.34196656942367554,"148":-0.6458067893981934,"149":0.9653629660606384,"150":0.305308073759079,"151":0.1801510602235794,"152":-0.2117077261209488,"153":-0.5348103046417236,"154":-0.3183727562427521,"155":-0.16455061733722687,"156":0.42038214206695557,"157":0.08976109325885773,"158":-0.5095092058181763,"159":0.4217027723789215,"160":0.16727179288864136,"161":0.8300096988677979,"162":-0.24152898788452148,"163":-0.020879991352558136,"164":1.0143418312072754,"165":0.2416762262582779,"166":0.5726060271263123,"167":-0.3146516978740692,"168":-0.054633963853120804}},"15":{"bias":0.23243191838264465,"weights":{"0":0.41681191325187683,"1":-0.8347020149230957,"2":-0.2058640420436859,"3":0.36924082040786743,"4":0.43015819787979126,"5":0.4606676697731018,"6":0.48220396041870117,"7":0.11247923225164413,"8":0.5045408010482788,"9":0.3472307324409485,"10":0.06632617861032486,"11":-0.30842623114585876,"12":-0.07779687643051147,"13":0.08187667280435562,"14":-0.26730620861053467,"15":0.8509742021560669,"16":0.13063649833202362,"17":-0.05999884754419327,"18":-1.0011764764785767,"19":0.49693170189857483,"20":-0.020575832575559616,"21":-0.3399321734905243,"22":0.6859413385391235,"23":0.6681755185127258,"24":-0.3008350431919098,"25":0.028687894344329834,"26":0.3079081177711487,"27":0.4006475806236267,"28":0.7980404496192932,"29":0.11471351981163025,"30":0.20989134907722473,"31":-0.23625802993774414,"32":-1.6323480606079102,"33":0.2822946310043335,"34":0.15403567254543304,"35":-0.3231055736541748,"36":0.11672870069742203,"37":0.7127535343170166,"38":-0.16887907683849335,"39":0.04148716479539871,"40":0.6492209434509277,"41":0.3736281991004944,"42":0.34816452860832214,"43":-0.2322617471218109,"44":-0.71219801902771,"45":-0.09314601123332977,"46":-0.8040982484817505,"47":-0.2644464671611786,"48":-0.8679127097129822,"49":0.19934283196926117,"50":-0.28620821237564087,"51":0.23831361532211304,"52":0.4846467077732086,"53":0.44083744287490845,"54":0.429049551486969,"55":0.04462823271751404,"56":0.21442656219005585,"57":0.6357269287109375,"58":-0.5952468514442444,"59":-0.5152299404144287,"60":-0.684578537940979,"61":-0.2339557409286499,"62":-0.26065051555633545,"63":0.5367770195007324,"64":0.45333486795425415,"65":0.43269577622413635,"66":0.42798852920532227,"67":0.32288163900375366,"68":0.23377931118011475,"69":0.6996040344238281,"70":-0.22720928490161896,"71":0.03602949529886246,"72":0.13674359023571014,"73":0.369204044342041,"74":-0.07763434201478958,"75":-0.6714653372764587,"76":-0.3093307316303253,"77":-0.1470366269350052,"78":0.03107650764286518,"79":0.5033780932426453,"80":0.5465233325958252,"81":0.41267144680023193,"82":0.32996755838394165,"83":0.1555677056312561,"84":0.16468439996242523,"85":0.03156238794326782,"86":0.7723331451416016,"87":-0.1711634397506714,"88":-1.1709277629852295,"89":-0.6561849117279053,"90":-0.5841715335845947,"91":0.5825293660163879,"92":0.1945246309041977,"93":0.4084486663341522,"94":0.13374711573123932,"95":0.0012549420353025198,"96":0.12863872945308685,"97":-0.016322331503033638,"98":0.33857205510139465,"99":0.5601761341094971,"100":0.8666529059410095,"101":0.48843666911125183,"102":-0.9005193710327148,"103":-0.38071075081825256,"104":-0.11557921022176743,"105":-0.020651256665587425,"106":-0.6105952262878418,"107":0.44353219866752625,"108":-0.06706704199314117,"109":0.35928088426589966,"110":0.30590590834617615,"111":-0.31748729944229126,"112":0.30548831820487976,"113":0.5865464210510254,"114":0.11869420111179352,"115":0.43308931589126587,"116":-0.2247980386018753,"117":-0.6831692457199097,"118":-0.3881273567676544,"119":-0.6206637024879456,"120":0.16023455560207367,"121":0.29725101590156555,"122":-0.2792218327522278,"123":0.61018967628479,"124":0.14659929275512695,"125":-0.3493312895298004,"126":0.2187483310699463,"127":0.38695207238197327,"128":1.0620559453964233,"129":-0.4033662676811218,"130":0.4483959972858429,"131":0.2889074385166168,"132":0.262452095746994,"133":0.46725019812583923,"134":-0.07217070460319519,"135":0.2477729320526123,"136":-0.4709291160106659,"137":0.3969522714614868,"138":-0.5773308277130127,"139":-0.08115141093730927,"140":0.5080262422561646,"141":0.7513280510902405,"142":0.8801596164703369,"143":-0.18939584493637085,"144":-0.1572279930114746,"145":0.3942829370498657,"146":0.9539371132850647,"147":0.3254549503326416,"148":-0.1162235215306282,"149":0.7630964517593384,"150":0.33288025856018066,"151":0.5014212131500244,"152":-0.20665353536605835,"153":0.07026739418506622,"154":-0.1365227848291397,"155":0.8816072344779968,"156":0.18489615619182587,"157":-0.1943715214729309,"158":-0.650645911693573,"159":-0.02179894596338272,"160":0.2694995403289795,"161":0.35756492614746094,"162":-0.4268918037414551,"163":0.03240771219134331,"164":0.9168388843536377,"165":0.14218521118164062,"166":0.7099928855895996,"167":0.9598062038421631,"168":0.1506037563085556}},"16":{"bias":-0.26925113797187805,"weights":{"0":0.4570327699184418,"1":-0.9309291839599609,"2":-0.14903321862220764,"3":0.036724917590618134,"4":-0.3601061701774597,"5":0.0014636691194027662,"6":-0.6502044200897217,"7":-1.3245877027511597,"8":1.1567718982696533,"9":0.2720310389995575,"10":-0.6083639860153198,"11":-1.3234846591949463,"12":0.25242918729782104,"13":0.15526996552944183,"14":0.15693449974060059,"15":0.21102218329906464,"16":-2.1606130599975586,"17":-1.9254515171051025,"18":-1.4620720148086548,"19":-0.6367828845977783,"20":0.6684145331382751,"21":-0.5971108078956604,"22":1.1841480731964111,"23":0.3152759075164795,"24":-1.1497083902359009,"25":-0.38311395049095154,"26":0.36115124821662903,"27":0.12148445099592209,"28":0.2160048633813858,"29":-1.110419750213623,"30":0.987675130367279,"31":-1.8056480884552002,"32":-0.8978402614593506,"33":-0.37622690200805664,"34":-0.4947466254234314,"35":-0.01636318303644657,"36":0.023435601964592934,"37":0.1721058338880539,"38":-0.2514623999595642,"39":0.5770445466041565,"40":0.1958136111497879,"41":0.8537011742591858,"42":0.25123727321624756,"43":-0.4795192778110504,"44":-0.3765902519226074,"45":-1.0757219791412354,"46":-2.736966609954834,"47":0.580606997013092,"48":-0.7654273509979248,"49":-0.031117534264922142,"50":0.13041627407073975,"51":0.7256672382354736,"52":0.6463758945465088,"53":0.43917983770370483,"54":0.23510755598545074,"55":-1.240732192993164,"56":-0.0022053818684071302,"57":0.24777556955814362,"58":-0.1131753996014595,"59":-0.42307010293006897,"60":-1.0458859205245972,"61":-0.18682020902633667,"62":-0.9502130746841431,"63":1.499795913696289,"64":1.112209439277649,"65":0.016433382406830788,"66":-0.22442756593227386,"67":-0.7366898059844971,"68":0.25019341707229614,"69":0.5434794425964355,"70":-0.6501308083534241,"71":-0.3107733130455017,"72":0.3666442334651947,"73":0.1821858137845993,"74":-0.31332093477249146,"75":-0.07217490673065186,"76":-0.09272155910730362,"77":-0.008320167660713196,"78":-0.4480712115764618,"79":1.2628308534622192,"80":1.6516554355621338,"81":-0.0323440283536911,"82":0.8218122124671936,"83":0.22495105862617493,"84":0.5246870517730713,"85":-0.14714103937149048,"86":0.7313646674156189,"87":-0.5287395715713501,"88":-1.5044442415237427,"89":-1.7493261098861694,"90":0.4116133749485016,"91":0.6762315630912781,"92":0.10207117348909378,"93":0.47144725918769836,"94":0.9817328453063965,"95":-0.2262485772371292,"96":0.023114541545510292,"97":0.17096486687660217,"98":0.20604237914085388,"99":1.3449995517730713,"100":-0.40977320075035095,"101":0.8953843712806702,"102":-0.7313718795776367,"103":-0.49788329005241394,"104":-0.3415665328502655,"105":-0.8013538122177124,"106":-0.014030611142516136,"107":0.7961386442184448,"108":-0.13760055601596832,"109":1.4126362800598145,"110":0.32015499472618103,"111":-1.415149450302124,"112":0.1830569952726364,"113":-0.6958187818527222,"114":-0.7138411402702332,"115":0.05440481752157211,"116":-1.45375394821167,"117":-0.15319542586803436,"118":-0.2847830355167389,"119":-0.6527955532073975,"120":-0.7648546695709229,"121":0.6752035021781921,"122":-0.48872050642967224,"123":1.6276291608810425,"124":-0.5502429604530334,"125":-0.3027011752128601,"126":-1.0811781883239746,"127":0.3489738404750824,"128":0.6663378477096558,"129":-0.7024009823799133,"130":0.6721553206443787,"131":0.8875126838684082,"132":0.11708375066518784,"133":-0.9252148866653442,"134":0.5313646793365479,"135":0.9158071279525757,"136":-0.3112249970436096,"137":0.32049858570098877,"138":-0.9200258255004883,"139":-1.6694546937942505,"140":-0.8988041281700134,"141":0.19008347392082214,"142":0.4911004304885864,"143":-0.5442511439323425,"144":-1.279225468635559,"145":-0.47522422671318054,"146":1.520285964012146,"147":-0.8897969722747803,"148":-1.8409141302108765,"149":1.506337285041809,"150":-0.21574467420578003,"151":1.11721670627594,"152":-0.5524816513061523,"153":-1.0591599941253662,"154":-0.919983983039856,"155":0.05128689855337143,"156":0.9102059006690979,"157":-0.5009860396385193,"158":-0.3791496157646179,"159":0.47432687878608704,"160":-0.34121665358543396,"161":1.364772081375122,"162":-0.4262491464614868,"163":-0.09416569024324417,"164":2.250910997390747,"165":0.15579794347286224,"166":0.9909270405769348,"167":-0.1750350296497345,"168":0.08975157886743546}},"17":{"bias":0.3829229474067688,"weights":{"0":-0.20614710450172424,"1":-0.19316306710243225,"2":0.23126670718193054,"3":0.21129411458969116,"4":0.25397223234176636,"5":0.5374997854232788,"6":0.30337873101234436,"7":0.10483826696872711,"8":-0.11097414791584015,"9":0.12764525413513184,"10":0.05167591571807861,"11":0.29552730917930603,"12":0.17971691489219666,"13":0.23623111844062805,"14":-0.24657203257083893,"15":0.1398286074399948,"16":0.40092596411705017,"17":0.3309830129146576,"18":-0.07577990740537643,"19":0.0016964933602139354,"20":-0.33786115050315857,"21":-0.15194734930992126,"22":-0.03599167242646217,"23":-0.05101557821035385,"24":0.1741257607936859,"25":0.4620280861854553,"26":0.18819233775138855,"27":0.5049566030502319,"28":0.3842582106590271,"29":-0.3609907329082489,"30":-0.003960802219808102,"31":0.596733570098877,"32":-0.3884594738483429,"33":0.14957678318023682,"34":0.09618024528026581,"35":0.023456620052456856,"36":-0.5310658812522888,"37":0.06047404929995537,"38":-0.30791375041007996,"39":-0.4090527594089508,"40":0.5557240843772888,"41":0.4521917402744293,"42":0.6867731213569641,"43":0.13113829493522644,"44":-0.14519436657428741,"45":0.01871097832918167,"46":-0.13010378181934357,"47":-0.08559781312942505,"48":-0.22120772302150726,"49":-0.03923611342906952,"50":-0.43464142084121704,"51":-0.14585289359092712,"52":-0.19578710198402405,"53":0.1503489762544632,"54":0.028546037152409554,"55":0.06378195434808731,"56":0.34379562735557556,"57":0.36685672402381897,"58":-0.714290201663971,"59":-0.24763567745685577,"60":-0.2794680595397949,"61":0.0873282179236412,"62":0.18364261090755463,"63":-0.13555139303207397,"64":0.4735517203807831,"65":-0.32759058475494385,"66":0.09253484010696411,"67":-0.018656594678759575,"68":0.02819427289068699,"69":0.4199211895465851,"70":-0.35053619742393494,"71":-0.1800544410943985,"72":-0.5316829085350037,"73":-0.08115663379430771,"74":0.1598196029663086,"75":0.09223862737417221,"76":0.10445085167884827,"77":-0.09752104431390762,"78":-0.3696339726448059,"79":0.3330950140953064,"80":0.12335603684186935,"81":0.03540147840976715,"82":-0.056651338934898376,"83":0.09717545658349991,"84":-0.257624089717865,"85":-0.2564758062362671,"86":-0.12543395161628723,"87":-0.5244400501251221,"88":-0.24124397337436676,"89":0.04334339126944542,"90":-0.05023553594946861,"91":0.26859918236732483,"92":-0.05575217306613922,"93":0.18816746771335602,"94":-0.22016677260398865,"95":-0.20725293457508087,"96":-0.11532459408044815,"97":-0.014900031499564648,"98":-0.3597829341888428,"99":-0.07089444249868393,"100":0.30408063530921936,"101":0.3733820617198944,"102":-0.02708309516310692,"103":0.7616796493530273,"104":-0.25110748410224915,"105":-0.003866696497425437,"106":-0.45724090933799744,"107":0.03855046629905701,"108":0.37235596776008606,"109":-0.1250067949295044,"110":-0.15016312897205353,"111":-0.31745514273643494,"112":0.04807563126087189,"113":0.18331263959407806,"114":0.08171907812356949,"115":0.06547734886407852,"116":-0.10544648766517639,"117":-0.6346572041511536,"118":0.2982878088951111,"119":0.17713826894760132,"120":0.5925238728523254,"121":0.21602043509483337,"122":0.19609998166561127,"123":0.4579874277114868,"124":0.282565176486969,"125":0.11048605293035507,"126":0.23500661551952362,"127":0.2979312837123871,"128":0.2901134788990021,"129":0.003120347624644637,"130":0.03987366333603859,"131":-0.15316544473171234,"132":-0.047567639499902725,"133":0.22850848734378815,"134":0.2237551063299179,"135":0.10168939083814621,"136":-0.0713978186249733,"137":-0.010151809081435204,"138":0.2530544400215149,"139":0.24109798669815063,"140":0.46062538027763367,"141":-0.13461712002754211,"142":0.21945452690124512,"143":0.25573527812957764,"144":0.3226584196090698,"145":0.056303489953279495,"146":0.42560508847236633,"147":0.11495821177959442,"148":-0.010135535150766373,"149":0.05758686736226082,"150":-0.01349236536771059,"151":0.09832419455051422,"152":0.17916707694530487,"153":0.4038870632648468,"154":0.295721173286438,"155":0.20569899678230286,"156":0.04378985986113548,"157":0.11814934760332108,"158":-0.26121798157691956,"159":0.1758941262960434,"160":0.3632153272628784,"161":0.32476434111595154,"162":0.21752020716667175,"163":-0.007124813739210367,"164":0.258556604385376,"165":0.16814438998699188,"166":0.46276557445526123,"167":0.2504006326198578,"168":-0.14919111132621765}},"18":{"bias":-0.08118733018636703,"weights":{"0":-0.07822491228580475,"1":0.5387649536132812,"2":0.16162912547588348,"3":-0.5120366215705872,"4":-0.5430434942245483,"5":-0.5425415635108948,"6":-1.1914587020874023,"7":-0.43797770142555237,"8":-0.860188364982605,"9":-0.5544549822807312,"10":-0.049024295061826706,"11":-0.03697105869650841,"12":-0.30369508266448975,"13":0.5161564350128174,"14":0.015275999903678894,"15":-0.22201038897037506,"16":0.3032349944114685,"17":-0.23378482460975647,"18":-0.28265848755836487,"19":-0.3114728033542633,"20":-0.0077830092050135136,"21":-0.0016788431676104665,"22":-0.1386132687330246,"23":-0.4815286099910736,"24":-0.3718920946121216,"25":-0.33445432782173157,"26":-0.14336441457271576,"27":-0.3613033592700958,"28":0.040096115320920944,"29":0.32312947511672974,"30":-0.21732394397258759,"31":-0.6836117506027222,"32":0.07193928956985474,"33":-0.5126357674598694,"34":-0.9526897668838501,"35":-0.4407064914703369,"36":0.05207732692360878,"37":-0.15096159279346466,"38":-0.09110260754823685,"39":0.12442447245121002,"40":-0.3608103394508362,"41":-0.1636694371700287,"42":0.21522046625614166,"43":0.43940269947052,"44":-0.33861252665519714,"45":-0.2689301669597626,"46":-0.0953863263130188,"47":-0.10470101237297058,"48":-0.07179653644561768,"49":-0.27810758352279663,"50":0.7478678226470947,"51":0.18942993879318237,"52":-0.3153044879436493,"53":-0.730197012424469,"54":-0.25462606549263,"55":0.441586971282959,"56":0.09683164954185486,"57":-0.032578591257333755,"58":0.4246273338794708,"59":0.44662562012672424,"60":-0.1398695558309555,"61":-0.4771285653114319,"62":0.2759946882724762,"63":0.20631137490272522,"64":-0.4633001387119293,"65":-0.543520987033844,"66":0.1319485753774643,"67":0.03034369647502899,"68":0.10258885473012924,"69":-0.11751134693622589,"70":0.054760538041591644,"71":0.11625232547521591,"72":0.310352087020874,"73":-0.3092188835144043,"74":-0.03525371477007866,"75":0.24024640023708344,"76":0.18968503177165985,"77":0.21241740882396698,"78":0.2590343952178955,"79":-0.325756311416626,"80":-0.23445063829421997,"81":0.4550193250179291,"82":0.14012137055397034,"83":0.00927587691694498,"84":-0.663095235824585,"85":-0.13578741252422333,"86":0.07121849060058594,"87":0.04609755054116249,"88":0.20413662493228912,"89":0.07842101156711578,"90":0.44311845302581787,"91":0.19880196452140808,"92":0.07132137566804886,"93":-0.6184430122375488,"94":-0.5959703326225281,"95":0.16438868641853333,"96":-0.06490577012300491,"97":0.07397433370351791,"98":0.49804696440696716,"99":0.27026593685150146,"100":-0.28232985734939575,"101":-0.29515400528907776,"102":0.7691124081611633,"103":-0.2520962953567505,"104":0.6768406629562378,"105":0.43168503046035767,"106":0.2837883532047272,"107":-0.5016013979911804,"108":-0.2588025629520416,"109":-0.4062062203884125,"110":-0.07074616849422455,"111":0.43068134784698486,"112":0.12297803163528442,"113":-0.08948663622140884,"114":0.5529524683952332,"115":0.9657406806945801,"116":0.7341497540473938,"117":1.1117969751358032,"118":0.5661477446556091,"119":0.4249151647090912,"120":-0.11074607819318771,"121":-0.16350847482681274,"122":0.01433919183909893,"123":-0.4970710575580597,"124":-0.34754130244255066,"125":-0.023541754111647606,"126":-0.005486225243657827,"127":-0.01805942878127098,"128":-0.09373454749584198,"129":0.9340518116950989,"130":0.7893999814987183,"131":0.630647599697113,"132":0.22919952869415283,"133":-0.14862842857837677,"134":-0.02422625757753849,"135":-0.06910503655672073,"136":0.057709500193595886,"137":-0.5926885604858398,"138":0.20075009763240814,"139":0.375507652759552,"140":0.343173086643219,"141":0.6314845085144043,"142":0.45466023683547974,"143":0.4030129909515381,"144":0.6170064210891724,"145":-0.03773176670074463,"146":0.1982540637254715,"147":0.2312130481004715,"148":-0.06641528010368347,"149":-0.9753164649009705,"150":-0.5771764516830444,"151":-0.4025596082210541,"152":0.3989691734313965,"153":0.30943259596824646,"154":-0.10236236453056335,"155":0.1912655085325241,"156":0.32837584614753723,"157":0.15270914137363434,"158":0.5843002796173096,"159":-0.2288040965795517,"160":0.03956027701497078,"161":-0.16525718569755554,"162":-0.015753259882330894,"163":-0.3020155131816864,"164":-0.4967740476131439,"165":-0.02621406503021717,"166":-0.36553940176963806,"167":0.12317537516355515,"168":0.17252475023269653}},"19":{"bias":-0.08850972354412079,"weights":{"0":0.20070679485797882,"1":0.3144005239009857,"2":-0.07472474128007889,"3":0.23980768024921417,"4":0.7170948386192322,"5":0.3239889144897461,"6":0.13118532299995422,"7":0.269928902387619,"8":-0.5720576047897339,"9":-0.19509968161582947,"10":-0.031941045075654984,"11":0.22867272794246674,"12":0.1003197729587555,"13":-0.10733384639024734,"14":-0.11573835462331772,"15":0.09012969583272934,"16":1.3900103569030762,"17":1.2550406455993652,"18":1.0476658344268799,"19":0.0795462429523468,"20":-0.6864776611328125,"21":-0.23542705178260803,"22":-0.2165251225233078,"23":-0.4427090287208557,"24":0.6384828686714172,"25":-0.5787308812141418,"26":-0.35923078656196594,"27":-0.6973416805267334,"28":-0.6469237208366394,"29":0.2381538599729538,"30":0.25350525975227356,"31":0.4423404633998871,"32":0.1799791008234024,"33":0.33958110213279724,"34":0.2394828200340271,"35":-0.07285476475954056,"36":-0.39906251430511475,"37":-0.6758233308792114,"38":0.0030150043312460184,"39":-0.11169333755970001,"40":-0.4557075798511505,"41":-0.5227584838867188,"42":0.15268979966640472,"43":0.2672652304172516,"44":-0.19351845979690552,"45":0.5844336152076721,"46":0.7287983894348145,"47":-0.47902992367744446,"48":0.5018910765647888,"49":0.37059327960014343,"50":0.32141000032424927,"51":-0.2657666802406311,"52":0.016817644238471985,"53":-0.3870283365249634,"54":0.01882435567677021,"55":0.7045891880989075,"56":0.27722522616386414,"57":0.05617740377783775,"58":-0.028493452817201614,"59":-0.46139371395111084,"60":-0.08713656663894653,"61":0.1459513008594513,"62":0.29371288418769836,"63":-0.731263279914856,"64":-0.43749871850013733,"65":-0.10550638288259506,"66":-0.08464239537715912,"67":-0.09399377554655075,"68":-0.7026845812797546,"69":-0.3896258473396301,"70":0.632993757724762,"71":-0.18952777981758118,"72":-0.14740073680877686,"73":0.07819999754428864,"74":-0.6406394243240356,"75":-0.44692355394363403,"76":0.2307027280330658,"77":-0.23244203627109528,"78":-0.12123604863882065,"79":-0.9281144142150879,"80":-0.31723836064338684,"81":-0.05803144723176956,"82":-0.735205888748169,"83":-0.415441632270813,"84":0.017464706674218178,"85":-0.12789027392864227,"86":-0.641112744808197,"87":0.15373307466506958,"88":0.029892826452851295,"89":0.15867801010608673,"90":-0.49842995405197144,"91":-0.06491278111934662,"92":0.025043582543730736,"93":0.21644897758960724,"94":-0.7445594668388367,"95":-0.48940858244895935,"96":0.13929340243339539,"97":-0.196342334151268,"98":-0.49195536971092224,"99":-0.5904728770256042,"100":-0.26401910185813904,"101":-0.5027499198913574,"102":0.19293402135372162,"103":-0.2366715967655182,"104":0.1007353737950325,"105":-0.06285744905471802,"106":-0.2964489459991455,"107":-0.8394339084625244,"108":-0.25844818353652954,"109":-0.9246429204940796,"110":-0.6515563726425171,"111":0.2071855515241623,"112":0.013866111636161804,"113":0.39138323068618774,"114":0.3263522982597351,"115":0.5295680165290833,"116":0.9277268052101135,"117":0.3499014377593994,"118":0.2360020875930786,"119":0.08315607160329819,"120":-0.1957855224609375,"121":-0.4330980181694031,"122":-0.04551152512431145,"123":-1.4175411462783813,"124":-0.44371479749679565,"125":-0.2677718698978424,"126":0.2815065085887909,"127":-0.4736844599246979,"128":-0.24540852010250092,"129":0.8630890250205994,"130":-0.3106291592121124,"131":-0.4993833601474762,"132":-0.2645190358161926,"133":0.31045207381248474,"134":-0.5672559142112732,"135":-0.3570772111415863,"136":-0.15735535323619843,"137":-1.0283443927764893,"138":-0.25651541352272034,"139":0.6036505103111267,"140":0.4361153244972229,"141":-0.6127890944480896,"142":-0.15666522085666656,"143":-0.05160755664110184,"144":0.8325933218002319,"145":-0.2548055946826935,"146":-0.5923287868499756,"147":0.36543789505958557,"148":0.6389943361282349,"149":-0.6345217823982239,"150":-0.09112004190683365,"151":-0.46342477202415466,"152":-0.031573355197906494,"153":0.3717423677444458,"154":0.6679683923721313,"155":-0.0930199921131134,"156":0.09221408516168594,"157":0.1397019773721695,"158":0.23154176771640778,"159":-0.7730183601379395,"160":0.4693523943424225,"161":-0.6528108716011047,"162":0.38915127515792847,"163":0.5086759328842163,"164":-0.9062711000442505,"165":-0.6620172262191772,"166":-0.49890682101249695,"167":-0.31997817754745483,"168":0.1702607274055481}},"20":{"bias":-0.020040754228830338,"weights":{"0":-0.14235064387321472,"1":0.06810222566127777,"2":0.11533403396606445,"3":0.033827755600214005,"4":-0.05764414370059967,"5":0.18557581305503845,"6":-0.18847934901714325,"7":0.06891506910324097,"8":0.0275646410882473,"9":0.14335541427135468,"10":0.17250199615955353,"11":0.10111700743436813,"12":0.1356145143508911,"13":0.1728515326976776,"14":0.04289737343788147,"15":0.13694046437740326,"16":-0.27110835909843445,"17":-0.22265388071537018,"18":-0.18894335627555847,"19":-0.10067636519670486,"20":-0.09335880726575851,"21":-0.20099012553691864,"22":0.043937571346759796,"23":-0.12045285105705261,"24":0.12164067476987839,"25":-0.1181287094950676,"26":0.01890619844198227,"27":-0.16538368165493011,"28":-0.07018141448497772,"29":0.036402978003025055,"30":0.1474020928144455,"31":0.00989861972630024,"32":-0.17295290529727936,"33":-0.08988865464925766,"34":0.09854399412870407,"35":0.08412325382232666,"36":0.15841123461723328,"37":0.11191964894533157,"38":-0.34572067856788635,"39":-0.14215783774852753,"40":0.23109760880470276,"41":0.15581363439559937,"42":0.1855367124080658,"43":-0.07375292479991913,"44":-0.12687824666500092,"45":0.18505248427391052,"46":-0.1826908439397812,"47":0.12583081424236298,"48":-0.12472246587276459,"49":-0.2819448709487915,"50":0.0945163294672966,"51":-0.033968281000852585,"52":0.015229150652885437,"53":0.08740575611591339,"54":-0.17816758155822754,"55":0.05833819508552551,"56":0.05366801843047142,"57":0.13131189346313477,"58":0.06835588812828064,"59":0.07153339684009552,"60":-0.1090729832649231,"61":0.14118331670761108,"62":-0.11961853504180908,"63":-0.08992870151996613,"64":-0.13344229757785797,"65":-0.22355251014232635,"66":0.14830946922302246,"67":-0.04297204315662384,"68":0.09622747451066971,"69":0.08991983532905579,"70":0.16105863451957703,"71":-0.022368287667632103,"72":0.07526379078626633,"73":0.011463988572359085,"74":-0.08998153358697891,"75":0.010706251487135887,"76":0.06467177718877792,"77":0.15764716267585754,"78":-0.05637191981077194,"79":0.05977911129593849,"80":0.14309953153133392,"81":-0.09162245690822601,"82":0.15783803164958954,"83":-0.10060075670480728,"84":-0.044234223663806915,"85":0.10311318933963776,"86":-0.17336374521255493,"87":-0.2704926133155823,"88":-0.08152000606060028,"89":-0.05241068825125694,"90":0.17236295342445374,"91":-0.10671219974756241,"92":-0.25622743368148804,"93":-0.11729741841554642,"94":-0.17942649126052856,"95":-0.1622602939605713,"96":-0.17852294445037842,"97":0.1537664383649826,"98":0.14370012283325195,"99":0.012111286632716656,"100":0.11351489275693893,"101":0.24567434191703796,"102":-0.17801180481910706,"103":-0.14256364107131958,"104":-0.02116329036653042,"105":0.15535779297351837,"106":0.04989825189113617,"107":0.11626076698303223,"108":0.08194518089294434,"109":-0.02878105454146862,"110":-0.08769281953573227,"111":0.04966450110077858,"112":0.1459820717573166,"113":-0.21778741478919983,"114":-0.2769008278846741,"115":-0.0432547926902771,"116":-0.047290608286857605,"117":-0.3220997154712677,"118":-0.20246322453022003,"119":-0.18202447891235352,"120":-0.06228860840201378,"121":0.018246034160256386,"122":-0.16686061024665833,"123":0.27448660135269165,"124":0.05943840742111206,"125":-0.12545117735862732,"126":-0.11909107863903046,"127":0.18402506411075592,"128":-0.12971122562885284,"129":-0.01846650242805481,"130":0.0040279654785990715,"131":-0.1252371072769165,"132":-0.2385438084602356,"133":-0.04003350809216499,"134":0.06536693125963211,"135":-0.17310011386871338,"136":0.02704649232327938,"137":0.14997215569019318,"138":-0.02281474694609642,"139":-0.006666629575192928,"140":-0.25251737236976624,"141":0.023791979998350143,"142":0.05858662351965904,"143":0.0039000376127660275,"144":-0.09411944448947906,"145":-0.26130419969558716,"146":0.020795853808522224,"147":0.1102469190955162,"148":-0.0491524375975132,"149":0.18696115911006927,"150":-0.06737030297517776,"151":-0.20345616340637207,"152":-0.15481966733932495,"153":-0.23588228225708008,"154":0.10859521478414536,"155":0.08106760680675507,"156":-0.0064454879611730576,"157":-0.03901661932468414,"158":-0.015691624954342842,"159":0.06494417786598206,"160":-0.201460063457489,"161":-0.07592040300369263,"162":0.08309047669172287,"163":-0.17844617366790771,"164":0.2558871805667877,"165":-0.11444032937288284,"166":0.11347492039203644,"167":-0.15417766571044922,"168":0.15010762214660645}},"21":{"bias":0.10833638161420822,"weights":{"0":-0.29826992750167847,"1":0.2280685156583786,"2":-0.14119994640350342,"3":-0.4008484482765198,"4":-0.2049620896577835,"5":-0.27272680401802063,"6":0.05641382187604904,"7":0.21184051036834717,"8":-0.09199734032154083,"9":0.032034385949373245,"10":0.034054677933454514,"11":-0.0038863711524754763,"12":-0.2419040948152542,"13":0.021970441564917564,"14":0.04454365745186806,"15":-0.12165126204490662,"16":0.15410222113132477,"17":0.05596381053328514,"18":0.29311418533325195,"19":0.1207517609000206,"20":-0.05488281697034836,"21":0.24607178568840027,"22":-0.31527283787727356,"23":-0.27847298979759216,"24":-0.12507085502147675,"25":0.27255338430404663,"26":-0.1072542667388916,"27":0.025349076837301254,"28":-0.1531250774860382,"29":0.15195465087890625,"30":-0.0569838248193264,"31":0.016540134325623512,"32":0.06308005005121231,"33":-0.362194687128067,"34":-0.3755961060523987,"35":-0.3453669250011444,"36":-0.0250327717512846,"37":0.0030511042568832636,"38":-0.13261911273002625,"39":0.23871105909347534,"40":-0.07214993238449097,"41":-0.2331826537847519,"42":-0.001009877771139145,"43":-0.11242698132991791,"44":-0.27757206559181213,"45":-0.2836398780345917,"46":0.24358472228050232,"47":-0.17274154722690582,"48":-0.15824177861213684,"49":0.32297539710998535,"50":0.328218549489975,"51":-0.04876532033085823,"52":0.04537395387887955,"53":-0.020259425044059753,"54":-0.36748751997947693,"55":0.17664285004138947,"56":-0.15444158017635345,"57":-0.28545626997947693,"58":-0.007036113645881414,"59":0.07116170972585678,"60":0.04780491068959236,"61":-0.31571951508522034,"62":0.11238030344247818,"63":-0.122233547270298,"64":0.11313498020172119,"65":-0.028211483731865883,"66":0.18478995561599731,"67":-0.11396525055170059,"68":0.14793908596038818,"69":0.11031843721866608,"70":-0.12300849705934525,"71":0.18276968598365784,"72":-0.1367519199848175,"73":-0.2471030205488205,"74":-0.23841142654418945,"75":-0.035082947462797165,"76":0.07309340685606003,"77":0.13547171652317047,"78":0.2982175648212433,"79":-0.41556891798973083,"80":0.027100572362542152,"81":0.07075542211532593,"82":-0.07906032353639603,"83":-0.04191301763057709,"84":-0.10119026899337769,"85":0.09285834431648254,"86":-0.06098309904336929,"87":0.29507166147232056,"88":0.010391593910753727,"89":0.2125241905450821,"90":0.19281309843063354,"91":0.03254082798957825,"92":0.2339259386062622,"93":-0.07352595776319504,"94":0.1116250604391098,"95":0.026689650490880013,"96":-0.003277314594015479,"97":0.19883379340171814,"98":0.12443771213293076,"99":0.010332319885492325,"100":-0.3912695348262787,"101":-0.22104062139987946,"102":0.27799347043037415,"103":0.018913935869932175,"104":0.0680340975522995,"105":-0.02922031469643116,"106":-0.16044209897518158,"107":-0.13828814029693604,"108":-0.026013530790805817,"109":-0.11809337884187698,"110":-0.04957658052444458,"111":0.3539077639579773,"112":-0.11593072861433029,"113":0.08987302333116531,"114":-0.09815806895494461,"115":0.22231316566467285,"116":0.21556727588176727,"117":0.2678879499435425,"118":-0.058059848845005035,"119":0.06955290585756302,"120":-0.27324870228767395,"121":0.0780654177069664,"122":0.25210365653038025,"123":-0.535190999507904,"124":0.13008281588554382,"125":-0.021887151524424553,"126":0.055727727711200714,"127":-0.006866909097880125,"128":-0.14230048656463623,"129":0.24702155590057373,"130":-0.09849785268306732,"131":-0.08935292065143585,"132":-0.00868779793381691,"133":-0.2791019678115845,"134":0.09570722281932831,"135":-0.028921784833073616,"136":0.11671856045722961,"137":-0.6376540660858154,"138":-0.1752374917268753,"139":0.3305695950984955,"140":0.0909419134259224,"141":-0.00535579863935709,"142":-0.20513005554676056,"143":0.2853914499282837,"144":0.30169397592544556,"145":-0.2823893129825592,"146":-0.4466685950756073,"147":0.17833155393600464,"148":0.24127787351608276,"149":-0.15775063633918762,"150":-0.005114455707371235,"151":-0.2306368499994278,"152":0.328974187374115,"153":-0.015954138711094856,"154":0.2095441371202469,"155":0.1961570531129837,"156":-0.059191636741161346,"157":0.08068404346704483,"158":0.26140710711479187,"159":-0.2528226375579834,"160":-0.041252199560403824,"161":-0.25383874773979187,"162":-0.10774782299995422,"163":0.17649109661579132,"164":-0.4478265643119812,"165":-0.0836920440196991,"166":-0.2722916901111603,"167":0.24162140488624573,"168":-0.19624343514442444}},"22":{"bias":-0.08542691171169281,"weights":{"0":-0.21575956046581268,"1":0.1414298266172409,"2":0.15613093972206116,"3":-0.02739604003727436,"4":-0.01179824210703373,"5":0.11923349648714066,"6":0.01835433579981327,"7":0.02240106463432312,"8":0.162505105137825,"9":-0.11815988272428513,"10":-0.13632197678089142,"11":0.18017783761024475,"12":-0.12816891074180603,"13":0.16715188324451447,"14":0.11668820679187775,"15":0.1337687224149704,"16":-0.03471669927239418,"17":0.12413518130779266,"18":-0.17978419363498688,"19":-0.07647450268268585,"20":0.025235671550035477,"21":-0.020951231941580772,"22":-0.13486015796661377,"23":-0.12526211142539978,"24":0.1032501831650734,"25":-0.2135407030582428,"26":-0.10679300129413605,"27":0.044132720679044724,"28":-0.11590775847434998,"29":-0.03439954295754433,"30":0.022681139409542084,"31":0.16155275702476501,"32":0.010325293987989426,"33":-0.1682637482881546,"34":-0.14992819726467133,"35":-0.025328755378723145,"36":0.04449520632624626,"37":0.03056313842535019,"38":0.09658847004175186,"39":0.09730493277311325,"40":-0.1079949215054512,"41":-0.1844695657491684,"42":-0.015714937821030617,"43":-0.12343186885118484,"44":0.00033582327887415886,"45":0.05447344854474068,"46":0.021516699343919754,"47":0.08295667916536331,"48":-0.12773467600345612,"49":0.11484519392251968,"50":0.0052507417276501656,"51":-0.08538488298654556,"52":-0.10554772615432739,"53":-0.17972660064697266,"54":-0.07984276115894318,"55":0.06687381118535995,"56":-0.04050837829709053,"57":-0.08164900541305542,"58":-0.19613170623779297,"59":-0.18131980299949646,"60":0.03203517943620682,"61":0.08501662313938141,"62":0.12745800614356995,"63":-0.1776546686887741,"64":-0.2018311470746994,"65":-0.08326861262321472,"66":-0.1512545645236969,"67":0.10975593328475952,"68":0.02748773992061615,"69":0.03136688098311424,"70":0.16653552651405334,"71":0.15502946078777313,"72":-0.1452982872724533,"73":0.1904265433549881,"74":0.17499983310699463,"75":0.16054603457450867,"76":-0.19407308101654053,"77":-0.19455522298812866,"78":0.12235146760940552,"79":0.07479288429021835,"80":-0.1548197865486145,"81":-0.033507272601127625,"82":-0.09074270725250244,"83":0.15766054391860962,"84":0.17936114966869354,"85":-0.0006311169709078968,"86":-0.16141819953918457,"87":-0.1567407250404358,"88":-0.12657874822616577,"89":0.1290442794561386,"90":-0.1682586818933487,"91":-0.1941278576850891,"92":0.16316087543964386,"93":0.03233882784843445,"94":0.09345673024654388,"95":-0.22077780961990356,"96":-0.06635820865631104,"97":0.1211850494146347,"98":0.04382336139678955,"99":0.158874049782753,"100":0.15367864072322845,"101":0.16268037259578705,"102":0.1031927615404129,"103":-0.15839579701423645,"104":0.03885749354958534,"105":0.020655469968914986,"106":-0.17766262590885162,"107":-0.19615983963012695,"108":-0.2359631359577179,"109":-0.20345868170261383,"110":0.10640320926904678,"111":-0.019082656130194664,"112":-0.24301135540008545,"113":-0.025198260322213173,"114":-0.058794572949409485,"115":-0.20418681204319,"116":-0.08861371129751205,"117":-0.1899711638689041,"118":0.16202795505523682,